{"learner":{"attributes":{"best_iteration":"99","best_ntree_limit":"100","scikit_learn":"{\"use_label_encoder\": null, \"n_estimators\": 100, \"objective\": \"binary:logistic\", \"max_depth\": 3, \"max_leaves\": null, \"max_bin\": null, \"grow_policy\": null, \"learning_rate\": 0.05, \"verbosity\": null, \"booster\": null, \"tree_method\": null, \"gamma\": null, \"min_child_weight\": null, \"max_delta_step\": null, \"subsample\": null, \"sampling_method\": null, \"colsample_bytree\": null, \"colsample_bylevel\": null, \"colsample_bynode\": null, \"reg_alpha\": null, \"reg_lambda\": null, \"scale_pos_weight\": null, \"base_score\": null, \"missing\": NaN, \"num_parallel_tree\": null, \"random_state\": 42, \"n_jobs\": null, \"monotone_constraints\": null, \"interaction_constraints\": null, \"importance_type\": null, \"gpu_id\": null, \"validate_parameters\": null, \"predictor\": null, \"enable_categorical\": false, \"feature_types\": null, \"max_cat_to_onehot\": null, \"max_cat_threshold\": null, \"eval_metric\": null, \"early_stopping_rounds\": null, \"callbacks\": null, \"kwargs\": {\"verposity\": 3}, \"classes_\": [0, 1], \"n_classes_\": 2, \"_estimator_type\": \"classifier\"}"},"feature_names":["judge_conf","court_conf","eligible_per_judge","eligible_per_court","FewShot"],"feature_types":["float","float","float","float","float"],"gradient_booster":{"model":{"gbtree_model_param":{"num_parallel_tree":"1","num_trees":"100","size_leaf_vector":"0"},"tree_info":[0,0,0,0,0,0,0,0,0,0,0,0,0,0,0,0,0,0,0,0,0,0,0,0,0,0,0,0,0,0,0,0,0,0,0,0,0,0,0,0,0,0,0,0,0,0,0,0,0,0,0,0,0,0,0,0,0,0,0,0,0,0,0,0,0,0,0,0,0,0,0,0,0,0,0,0,0,0,0,0,0,0,0,0,0,0,0,0,0,0,0,0,0,0,0,0,0,0,0,0],"trees":[{"base_weights":[-1.2474013E-2,-7.1378094E-1,9.7029704E-1,-1.4174757E0,-3.043478E-1,6.451613E-1,1.4146341E0,-1.6190476E0,-4.347826E-1,-5E-1,8.5714287E-1,3.8202247E-1,1.1794872E0],"categories":[],"categories_nodes":[],"categories_segments":[],"categories_sizes":[],"default_left":[1,1,1,1,1,1,0,0,0,0,0,0,0],"id":0,"left_children":[1,3,5,7,9,11,-1,-1,-1,-1,-1,-1,-1],"loss_changes":[8.3571785E1,1.9952797E1,6.3830605E0,4.3967094E0,1.0881987E1,3.9080667E0,0E0,0E0,0E0,0E0,0E0,0E0,0E0],"parents":[2147483647,0,0,1,1,2,2,3,3,4,4,5,5],"right_children":[2,4,6,8,10,12,-1,-1,-1,-1,-1,-1,-1],"split_conditions":[5.477853E-1,3.57561E-1,4.9014777E-1,4.9014777E-1,5.9520125E-1,7.0829904E-1,7.073171E-2,-8.095238E-2,-2.173913E-2,-2.5E-2,4.2857144E-2,1.9101124E-2,5.8974363E-2],"split_indices":[4,4,2,2,2,4,0,0,0,0,0,0,0],"split_type":[0,0,0,0,0,0,0,0,0,0,0,0,0],"sum_hessian":[1.1925E2,6.975E1,4.95E1,2.475E1,4.5E1,3E1,1.95E1,2E1,4.75E0,3.9E1,6E0,2.125E1,8.75E0],"tree_param":{"num_deleted":"0","num_feature":"5","num_nodes":"13","size_leaf_vector":"0"}},{"base_weights":[-1.1326739E-2,-6.797084E-1,9.253649E-1,-1.352373E0,-2.8879786E-1,6.1561656E-1,1.3489845E0,-1.5443994E0,-4.168656E-1,-4.7569853E-1,8.2073677E-1,3.6381218E-1,1.127456E0],"categories":[],"categories_nodes":[],"categories_segments":[],"categories_sizes":[],"default_left":[1,1,1,1,1,1,0,0,0,0,0,0,0],"id":1,"left_children":[1,3,5,7,9,11,-1,-1,-1,-1,-1,-1,-1],"loss_changes":[7.586598E1,1.820219E1,5.791477E0,3.975998E0,9.927736E0,3.583974E0,0E0,0E0,0E0,0E0,0E0,0E0,0E0],"parents":[2147483647,0,0,1,1,2,2,3,3,4,4,5,5],"right_children":[2,4,6,8,10,12,-1,-1,-1,-1,-1,-1,-1],"split_conditions":[5.477853E-1,3.57561E-1,4.9014777E-1,4.9014777E-1,5.9520125E-1,7.0829904E-1,6.744923E-2,-7.721997E-2,-2.084328E-2,-2.3784926E-2,4.103684E-2,1.819061E-2,5.63728E-2],"split_indices":[4,4,2,2,2,4,0,0,0,0,0,0,0],"split_type":[0,0,0,0,0,0,0,0,0,0,0,0,0],"sum_hessian":[1.1917395E2,6.970786E1,4.946609E1,2.471671E1,4.4991154E1,2.999046E1,1.9475632E1,1.996727E1,4.749439E0,3.8993908E1,5.997246E0,2.1248062E1,8.742396E0],"tree_param":{"num_deleted":"0","num_feature":"5","num_nodes":"13","size_leaf_vector":"0"}},{"base_weights":[-1.0274239E-2,-6.479959E-1,8.836318E-1,-1.4562827E0,-3.456207E-1,5.877705E-1,1.289238E0,-1.5279363E0,-3.745562E-1,-8.081789E-1,2.2044593E-1,3.465261E-1,1.0792998E0,1.384403E0,7.4834245E-1],"categories":[],"categories_nodes":[],"categories_segments":[],"categories_sizes":[],"default_left":[1,1,1,1,1,1,1,0,0,0,0,0,0,0,0],"id":2,"left_children":[1,3,5,7,9,11,13,-1,-1,-1,-1,-1,-1,-1,-1],"loss_changes":[6.8957565E1,1.674918E1,5.2868805E0,8.931465E-1,1.397258E1,3.297616E0,1.4438629E-2,0E0,0E0,0E0,0E0,0E0,0E0,0E0,0E0],"parents":[2147483647,0,0,1,1,2,2,3,3,4,4,5,5,6,6],"right_children":[2,4,6,8,10,12,14,-1,-1,-1,-1,-1,-1,-1,-1],"split_conditions":[5.477853E-1,3.0891615E-1,4.9014777E-1,7.058823E-1,4.8102188E-1,7.0829904E-1,9.264706E-1,-7.6396815E-2,-1.8727811E-2,-4.0408947E-2,1.1022297E-2,1.7326305E-2,5.396499E-2,6.922015E-2,3.7417125E-2],"split_indices":[4,4,2,0,3,4,0,0,0,0,0,0,0,0,0],"split_type":[0,0,0,0,0,0,0,0,0,0,0,0,0,0,0],"sum_hessian":[1.1896032E2,6.958954E1,4.9370785E1,1.7906656E1,5.168288E1,2.9963575E1,1.9407211E1,1.6407335E1,1.4993203E0,2.8206438E1,2.3476442E1,2.1242615E1,8.72096E0,1.5177435E1,4.229777E0],"tree_param":{"num_deleted":"0","num_feature":"5","num_nodes":"15","size_leaf_vector":"0"}},{"base_weights":[-9.347348E-3,-6.1886424E-1,8.454877E-1,-1.1258022E0,-1.7407286E-1,5.614721E-1,1.2363735E0,-1.2991095E0,2.5310487E-1,-6.7205566E-1,1.4276712E-1,3.5642326E-1,1.1091268E0],"categories":[],"categories_nodes":[],"categories_segments":[],"categories_sizes":[],"default_left":[1,1,1,1,1,1,0,0,0,0,0,0,0],"id":3,"left_children":[1,3,5,7,9,11,-1,-1,-1,-1,-1,-1,-1],"loss_changes":[6.28665E1,1.5683811E1,4.8818207E0,8.150635E0,6.2013254E0,3.0770693E0,0E0,0E0,0E0,0E0,0E0,0E0,0E0],"parents":[2147483647,0,0,1,1,2,2,3,3,4,4,5,5],"right_children":[2,4,6,8,10,12,-1,-1,-1,-1,-1,-1,-1],"split_conditions":[5.477853E-1,3.800168E-1,4.9014777E-1,5.9520125E-1,3.1562102E-1,7.2079694E-1,6.1818678E-2,-6.495547E-2,1.2655243E-2,-3.3602785E-2,7.138356E-3,1.7821163E-2,5.545634E-2],"split_indices":[4,4,2,2,3,4,0,0,0,0,0,0,0],"split_type":[0,0,0,0,0,0,0,0,0,0,0,0,0],"sum_hessian":[1.18652405E2,6.942607E1,4.922633E1,3.1730774E1,3.76953E1,2.9921751E1,1.9304579E1,2.823939E1,3.4913857E0,1.4221696E1,2.3473604E1,2.2971678E1,6.9500723E0],"tree_param":{"num_deleted":"0","num_feature":"5","num_nodes":"13","size_leaf_vector":"0"}},{"base_weights":[-8.446697E-3,-5.9091413E-1,8.090577E-1,-1.3523811E0,-3.0923438E-1,5.367161E-1,1.1857959E0,-1.4228364E0,-3.2511654E-1,-5.052199E-1,8.9175534E-1,3.3956E-1,1.0658318E0,1.2780277E0,6.734569E-1],"categories":[],"categories_nodes":[],"categories_segments":[],"categories_sizes":[],"default_left":[1,1,1,1,1,1,1,0,0,0,0,0,0,0,0],"id":4,"left_children":[1,3,5,7,9,11,13,-1,-1,-1,-1,-1,-1,-1,-1],"loss_changes":[5.726139E1,1.4641825E1,4.4974213E0,8.881836E-1,1.28195915E1,2.8583164E0,9.230232E-2,0E0,0E0,0E0,0E0,0E0,0E0,0E0,0E0],"parents":[2147483647,0,0,1,1,2,2,3,3,4,4,5,5,6,6],"right_children":[2,4,6,8,10,12,14,-1,-1,-1,-1,-1,-1,-1,-1],"split_conditions":[5.477853E-1,3.0891615E-1,4.9014777E-1,7.058823E-1,5.9520125E-1,7.2079694E-1,9.264706E-1,-7.1141824E-2,-1.6255828E-2,-2.5260994E-2,4.458777E-2,1.6978001E-2,5.329159E-2,6.390139E-2,3.3672847E-2],"split_indices":[4,4,2,0,2,4,0,0,0,0,0,0,0,0,0],"split_type":[0,0,0,0,0,0,0,0,0,0,0,0,0,0,0],"sum_hessian":[1.1825014E2,6.921325E1,4.903689E1,1.7663162E1,5.1550087E1,2.9869244E1,1.9167645E1,1.6169125E1,1.4940372E0,4.4816036E1,6.7340493E0,2.2956915E1,6.9123273E0,1.4976977E1,4.1906686E0],"tree_param":{"num_deleted":"0","num_feature":"5","num_nodes":"15","size_leaf_vector":"0"}},{"base_weights":[-7.2221244E-3,-5.645575E-1,7.755435E-1,-1.021578E0,-1.3299942E-1,5.1325285E-1,1.1406345E0,-1.2836479E0,-1.5128325E-1,-6.2419844E-1,1.7160663E-1,2.9724762E-1,9.595498E-1,1.2293539E0,6.485526E-1],"categories":[],"categories_nodes":[],"categories_segments":[],"categories_sizes":[],"default_left":[1,1,1,1,1,1,1,0,0,0,0,0,0,0,0],"id":5,"left_children":[1,3,5,7,9,11,13,-1,-1,-1,-1,-1,-1,-1,-1],"loss_changes":[5.2249428E1,1.3660219E1,4.1846924E0,7.519989E0,5.6620383E0,2.6845407E0,7.616997E-2,0E0,0E0,0E0,0E0,0E0,0E0,0E0,0E0],"parents":[2147483647,0,0,1,1,2,2,3,3,4,4,5,5,6,6],"right_children":[2,4,6,8,10,12,14,-1,-1,-1,-1,-1,-1,-1,-1],"split_conditions":[5.477853E-1,3.8487706E-1,4.9014777E-1,4.9014777E-1,3.1562102E-1,7.0829904E-1,9.264706E-1,-6.418239E-2,-7.5641624E-3,-3.1209921E-2,8.580332E-3,1.4862381E-2,4.797749E-2,6.1467696E-2,3.242763E-2],"split_indices":[4,4,2,2,3,4,0,0,0,0,0,0,0,0,0],"split_type":[0,0,0,0,0,0,0,0,0,0,0,0,0,0,0],"sum_hessian":[1.1776229E2,6.89489E1,4.8813396E1,3.2822567E1,3.6126328E1,2.9805899E1,1.9007496E1,2.486121E1,7.9613585E0,1.3426286E1,2.2700043E1,2.120758E1,8.598318E0,1.4834632E1,4.172864E0],"tree_param":{"num_deleted":"0","num_feature":"5","num_nodes":"15","size_leaf_vector":"0"}},{"base_weights":[-6.3843206E-3,-5.401331E-1,7.438737E-1,-1.264293E0,-2.7664253E-1,3.6312985E-1,9.701809E-1,-1.3303583E0,-3.1116465E-1,-4.6136507E-1,8.517822E-1,1.2607108E-1,7.3504597E-1,7.5869226E-1,1.1798395E0],"categories":[],"categories_nodes":[],"categories_segments":[],"categories_sizes":[],"default_left":[1,1,1,1,1,1,1,0,0,0,0,0,0,0,0],"id":6,"left_children":[1,3,5,7,9,11,13,-1,-1,-1,-1,-1,-1,-1,-1],"loss_changes":[4.773672E1,1.2939623E1,3.9177914E0,7.384167E-1,1.1304401E1,1.6770844E0,4.5654678E-1,0E0,0E0,0E0,0E0,0E0,0E0,0E0,0E0],"parents":[2147483647,0,0,1,1,2,2,3,3,4,4,5,5,6,6],"right_children":[2,4,6,8,10,12,14,-1,-1,-1,-1,-1,-1,-1,-1],"split_conditions":[5.477853E-1,3.0891615E-1,4.8102188E-1,7.058823E-1,5.9520125E-1,7.033974E-1,5.9520125E-1,-6.651791E-2,-1.5558233E-2,-2.3068255E-2,4.258911E-2,6.303554E-3,3.67523E-2,3.7934612E-2,5.8991976E-2],"split_indices":[4,4,3,0,2,4,2,0,0,0,0,0,0,0,0],"split_type":[0,0,0,0,0,0,0,0,0,0,0,0,0,0,0],"sum_hessian":[1.1720455E2,6.864744E1,4.8557114E1,1.730081E1,5.1346626E1,1.9072964E1,2.948415E1,1.5809226E1,1.4915844E0,4.46316E1,6.7150273E0,1.246608E1,6.606883E0,1.6977327E1,1.2506822E1],"tree_param":{"num_deleted":"0","num_feature":"5","num_nodes":"15","size_leaf_vector":"0"}},{"base_weights":[-5.449356E-3,-6.312765E-1,5.862342E-1,-8.018714E-1,3.8961762E-1,3.1920886E-1,1.0328741E0,-8.7887233E-1,8.425711E-1,-9.359892E-1,7.1845573E-1,-2.6075208E-1,5.2240074E-1,1.1277131E0,5.504634E-1],"categories":[],"categories_nodes":[],"categories_segments":[],"categories_sizes":[],"default_left":[1,1,1,1,1,1,1,0,0,0,0,0,0,0,0],"id":7,"left_children":[1,3,5,7,9,11,13,-1,-1,-1,-1,-1,-1,-1,-1],"loss_changes":[4.391566E1,1.0349508E1,6.941416E0,7.0345936E0,4.562778E0,4.8031106E0,4.0241623E-1,0E0,0E0,0E0,0E0,0E0,0E0,0E0,0E0],"parents":[2147483647,0,0,1,1,2,2,3,3,4,4,5,5,6,6],"right_children":[2,4,6,8,10,12,14,-1,-1,-1,-1,-1,-1,-1,-1],"split_conditions":[5.0078905E-1,5.992037E-1,4.9014777E-1,7.443609E-1,3.0891615E-1,5.539489E-1,9.264706E-1,-4.3943617E-2,4.2128555E-2,-4.6799462E-2,3.5922788E-2,-1.3037604E-2,2.6120037E-2,5.6385655E-2,2.752317E-2],"split_indices":[4,3,2,2,4,4,0,0,0,0,0,0,0,0,0],"split_type":[0,0,0,0,0,0,0,0,0,0,0,0,0,0,0],"sum_hessian":[1.1659809E2,5.6631603E1,5.9966488E1,4.8707027E1,7.924574E0,3.860252E1,2.1363968E1,4.697307E1,1.7339603E0,1.2081096E0,6.7164645E0,9.942068E0,2.8660452E1,1.6736095E1,4.627873E0],"tree_param":{"num_deleted":"0","num_feature":"5","num_nodes":"15","size_leaf_vector":"0"}},{"base_weights":[-4.4830204E-3,-6.033831E-1,5.614033E-1,-7.666772E-1,3.693749E-1,3.0424038E-1,9.949751E-1,-8.412775E-1,8.173389E-1,-9.147631E-1,6.873087E-1,-2.4908876E-1,4.98459E-1,1.08703E0,5.297166E-1],"categories":[],"categories_nodes":[],"categories_segments":[],"categories_sizes":[],"default_left":[1,1,1,1,1,1,1,0,0,0,0,0,0,0,0],"id":8,"left_children":[1,3,5,7,9,11,13,-1,-1,-1,-1,-1,-1,-1,-1],"loss_changes":[3.9983543E1,9.387112E0,6.4613056E0,6.5251217E0,4.2676144E0,4.3711863E0,3.7264252E-1,0E0,0E0,0E0,0E0,0E0,0E0,0E0,0E0],"parents":[2147483647,0,0,1,1,2,2,3,3,4,4,5,5,6,6],"right_children":[2,4,6,8,10,12,14,-1,-1,-1,-1,-1,-1,-1,-1],"split_conditions":[5.0078905E-1,5.992037E-1,4.9014777E-1,7.443609E-1,3.0891615E-1,5.539489E-1,9.264706E-1,-4.2063873E-2,4.0866945E-2,-4.5738157E-2,3.4365438E-2,-1.2454438E-2,2.492295E-2,5.4351505E-2,2.648583E-2],"split_indices":[4,3,2,2,4,4,0,0,0,0,0,0,0,0,0],"split_type":[0,0,0,0,0,0,0,0,0,0,0,0,0,0,0],"sum_hessian":[1.1597759E2,5.6313015E1,5.966458E1,4.8400085E1,7.9129286E0,3.851941E1,2.114517E1,4.667098E1,1.7291052E0,1.1977983E0,6.7151303E0,9.9342375E0,2.858517E1,1.6536833E1,4.6083393E0],"tree_param":{"num_deleted":"0","num_feature":"5","num_nodes":"15","size_leaf_vector":"0"}},{"base_weights":[-3.5885575E-3,-5.770753E-1,5.378393E-1,-1.1647893E0,-3.0376586E-1,2.9001912E-1,9.5924616E-1,-4.4876897E-1,-1.281154E0,-5.158554E-1,6.57857E-1,-2.3795758E-1,4.7570676E-1,1.0488342E0,5.0984603E-1],"categories":[],"categories_nodes":[],"categories_segments":[],"categories_sizes":[],"default_left":[1,1,1,1,1,1,1,0,0,0,0,0,0,0,0],"id":9,"left_children":[1,3,5,7,9,11,13,-1,-1,-1,-1,-1,-1,-1,-1],"loss_changes":[3.6423492E1,8.796036E0,6.023567E0,9.021988E-1,8.545181E0,3.978926E0,3.4745407E-1,0E0,0E0,0E0,0E0,0E0,0E0,0E0,0E0],"parents":[2147483647,0,0,1,1,2,2,3,3,4,4,5,5,6,6],"right_children":[2,4,6,8,10,12,14,-1,-1,-1,-1,-1,-1,-1,-1],"split_conditions":[5.0078905E-1,3.0891615E-1,4.9014777E-1,1.7047945E-1,5.992037E-1,5.539489E-1,9.264706E-1,-2.243845E-2,-6.40577E-2,-2.5792768E-2,3.289285E-2,-1.189788E-2,2.3785338E-2,5.2441712E-2,2.5492301E-2],"split_indices":[4,4,2,4,3,4,0,0,0,0,0,0,0,0,0],"split_type":[0,0,0,0,0,0,0,0,0,0,0,0,0,0,0],"sum_hessian":[1.1530572E2,5.5963104E1,5.9342613E1,1.6728653E1,3.9234447E1,3.843062E1,2.0911993E1,3.0175445E0,1.3711109E1,3.2524586E1,6.7098618E0,9.925983E0,2.8504637E1,1.6323952E1,4.58804E0],"tree_param":{"num_deleted":"0","num_feature":"5","num_nodes":"15","size_leaf_vector":"0"}},{"base_weights":[-3.3565671E-3,-5.533844E-1,5.1543784E-1,-1.128109E0,-2.892696E-1,2.7649766E-1,9.254468E-1,-4.3389556E-1,-1.2420067E0,-4.924569E-1,6.299576E-1,9.766569E-2,8.381764E-1,1.0128312E0,4.907989E-1],"categories":[],"categories_nodes":[],"categories_segments":[],"categories_sizes":[],"default_left":[1,1,1,1,1,1,1,0,0,0,0,0,0,0,0],"id":10,"left_children":[1,3,5,7,9,11,13,-1,-1,-1,-1,-1,-1,-1,-1],"loss_changes":[3.3270714E1,8.263845E0,5.6226397E0,8.4270287E-1,7.8032637E0,3.869421E0,3.2586288E-1,0E0,0E0,0E0,0E0,0E0,0E0,0E0,0E0],"parents":[2147483647,0,0,1,1,2,2,3,3,4,4,5,5,6,6],"right_children":[2,4,6,8,10,12,14,-1,-1,-1,-1,-1,-1,-1,-1],"split_conditions":[5.0078905E-1,3.0891615E-1,4.9014777E-1,1.7047945E-1,5.992037E-1,7.0829904E-1,9.264706E-1,-2.1694778E-2,-6.2100332E-2,-2.4622846E-2,3.149788E-2,4.8832847E-3,4.1908823E-2,5.0641563E-2,2.4539946E-2],"split_indices":[4,4,2,4,3,4,0,0,0,0,0,0,0,0,0],"split_type":[0,0,0,0,0,0,0,0,0,0,0,0,0,0,0],"sum_hessian":[1.1459599E2,5.5591255E1,5.9004738E1,1.6473333E1,3.911792E1,3.8337334E1,2.0667406E1,2.9996707E0,1.3473662E1,3.2416748E1,6.701174E0,2.996933E1,8.368003E0,1.610027E1,4.5671372E0],"tree_param":{"num_deleted":"0","num_feature":"5","num_nodes":"15","size_leaf_vector":"0"}},{"base_weights":[-2.8287473E-3,-4.350334E-1,6.070111E-1,-1.0937006E0,-2.0698236E-1,2.66073E-1,8.173672E-1,-1.1642245E0,-1.9548729E-1,-3.685291E-1,7.743561E-1,8.935852E-2,7.394047E-1,6.23702E-1,1.034358E0],"categories":[],"categories_nodes":[],"categories_segments":[],"categories_sizes":[],"default_left":[1,1,1,1,1,1,1,0,0,0,0,0,0,0,0],"id":11,"left_children":[1,3,5,7,9,11,13,-1,-1,-1,-1,-1,-1,-1,-1],"loss_changes":[3.0540653E1,9.958981E0,3.2293873E0,8.623142E-1,8.465923E0,1.5918636E0,5.836334E-1,0E0,0E0,0E0,0E0,0E0,0E0,0E0,0E0],"parents":[2147483647,0,0,1,1,2,2,3,3,4,4,5,5,6,6],"right_children":[2,4,6,8,10,12,14,-1,-1,-1,-1,-1,-1,-1,-1],"split_conditions":[5.477853E-1,3.0891615E-1,4.8102188E-1,7.058823E-1,5.9520125E-1,7.2079694E-1,6.7736197E-1,-5.8211226E-2,-9.7743645E-3,-1.8426456E-2,3.8717806E-2,4.4679265E-3,3.6970235E-2,3.11851E-2,5.1717903E-2],"split_indices":[4,4,3,0,2,4,4,0,0,0,0,0,0,0,0],"split_type":[0,0,0,0,0,0,0,0,0,0,0,0,0,0,0],"sum_hessian":[1.13868675E2,6.680757E1,4.7061108E1,1.6205698E1,5.0601875E1,1.8821201E1,2.8239904E1,1.4751328E1,1.4543686E0,4.3985497E1,6.6163764E0,1.4570291E1,4.250911E0,1.6969175E1,1.1270729E1],"tree_param":{"num_deleted":"0","num_feature":"5","num_nodes":"15","size_leaf_vector":"0"}},{"base_weights":[-2.049254E-3,-8.0661124E-1,3.047897E-1,-1.0640403E0,-8.6435275E-3,-5.6703016E-2,6.0182226E-1,-5.0639313E-1,-1.2671664E0,-5.1495814E-1,4.8971847E-1,-4.9889073E-1,1.9901939E-1,2.8540483E-1,8.060487E-1],"categories":[],"categories_nodes":[],"categories_segments":[],"categories_sizes":[],"default_left":[1,1,1,1,1,1,1,0,0,0,0,0,0,0,0],"id":12,"left_children":[1,3,5,7,9,11,13,-1,-1,-1,-1,-1,-1,-1,-1],"loss_changes":[2.8417856E1,6.51902E0,8.982394E0,2.0791264E0,2.462534E0,4.4531536E0,2.7317219E0,0E0,0E0,0E0,0E0,0E0,0E0,0E0,0E0],"parents":[2147483647,0,0,1,1,2,2,3,3,4,4,5,5,6,6],"right_children":[2,4,6,8,10,12,14,-1,-1,-1,-1,-1,-1,-1,-1],"split_conditions":[3.8487706E-1,4.9014777E-1,5.531454E-1,1.1313868E-1,3.23242E-1,3.1562102E-1,4.8102188E-1,-2.5319656E-2,-6.335832E-2,-2.5747908E-2,2.4485923E-2,-2.4944536E-2,9.950969E-3,1.4270241E-2,4.0302437E-2],"split_indices":[4,2,4,1,4,3,3,0,0,0,0,0,0,0,0],"split_type":[0,0,0,0,0,0,0,0,0,0,0,0,0,0,0],"sum_hessian":[1.13116356E2,3.0779829E1,8.2336525E1,2.3020002E1,7.759827E0,3.7503433E1,4.483309E1,7.0789585E0,1.5941044E1,3.8326828E0,3.9271443E0,1.3393271E1,2.4110163E1,1.8526546E1,2.6306543E1],"tree_param":{"num_deleted":"0","num_feature":"5","num_nodes":"15","size_leaf_vector":"0"}},{"base_weights":[-2.4550678E-3,-7.789518E-1,2.9140076E-1,-1.0309728E0,-8.403543E-3,-5.4351456E-2,5.770918E-1,-4.8737666E-1,-1.2315124E0,-4.96546E-1,4.6977252E-1,-4.7752708E-1,1.89466E-1,2.7241215E-1,7.754579E-1],"categories":[],"categories_nodes":[],"categories_segments":[],"categories_sizes":[],"default_left":[1,1,1,1,1,1,1,0,0,0,0,0,0,0,0],"id":13,"left_children":[1,3,5,7,9,11,13,-1,-1,-1,-1,-1,-1,-1,-1],"loss_changes":[2.6091795E1,6.087578E0,8.226126E0,1.977644E0,2.2745423E0,4.057548E0,2.539424E0,0E0,0E0,0E0,0E0,0E0,0E0,0E0,0E0],"parents":[2147483647,0,0,1,1,2,2,3,3,4,4,5,5,6,6],"right_children":[2,4,6,8,10,12,14,-1,-1,-1,-1,-1,-1,-1,-1],"split_conditions":[3.8487706E-1,4.9014777E-1,5.531454E-1,1.1313868E-1,3.23242E-1,3.1562102E-1,4.8102188E-1,-2.4368834E-2,-6.157562E-2,-2.48273E-2,2.3488626E-2,-2.3876354E-2,9.473301E-3,1.3620608E-2,3.8772896E-2],"split_indices":[4,2,4,1,4,3,3,0,0,0,0,0,0,0,0],"split_type":[0,0,0,0,0,0,0,0,0,0,0,0,0,0,0],"sum_hessian":[1.123536E2,3.0392473E1,8.196112E1,2.264731E1,7.745162E0,3.744897E1,4.4512154E1,7.0277495E0,1.5619561E1,3.8136299E0,3.9315321E0,1.3338974E1,2.4109997E1,1.848834E1,2.6023813E1],"tree_param":{"num_deleted":"0","num_feature":"5","num_nodes":"15","size_leaf_vector":"0"}},{"base_weights":[-2.8387408E-3,-7.527012E-1,2.7863234E-1,-9.996915E-1,-8.1834635E-3,-5.2102316E-2,5.534672E-1,-4.690905E-1,-1.1981769E0,-8.7520057E-1,2.4265963E-1,-4.5713145E-1,1.8037887E-1,2.6001185E-1,7.462461E-1],"categories":[],"categories_nodes":[],"categories_segments":[],"categories_sizes":[],"default_left":[1,1,1,1,1,1,1,0,0,0,0,0,0,0,0],"id":14,"left_children":[1,3,5,7,9,11,13,-1,-1,-1,-1,-1,-1,-1,-1],"loss_changes":[2.396989E1,5.6911755E0,7.535094E0,1.8880959E0,2.1107864E0,3.697534E0,2.362297E0,0E0,0E0,0E0,0E0,0E0,0E0,0E0,0E0],"parents":[2147483647,0,0,1,1,2,2,3,3,4,4,5,5,6,6],"right_children":[2,4,6,8,10,12,14,-1,-1,-1,-1,-1,-1,-1,-1],"split_conditions":[3.8487706E-1,4.9014777E-1,5.531454E-1,1.1313868E-1,2.4557903E-1,3.1562102E-1,4.8102188E-1,-2.3454525E-2,-5.9908845E-2,-4.3760028E-2,1.2132982E-2,-2.2856573E-2,9.018944E-3,1.3000593E-2,3.7312306E-2],"split_indices":[4,2,4,1,4,3,3,0,0,0,0,0,0,0,0],"split_type":[0,0,0,0,0,0,0,0,0,0,0,0,0,0,0],"sum_hessian":[1.1157295E2,2.9993526E1,8.157943E1,2.2264608E1,7.7289166E0,3.7392246E1,4.418718E1,6.976917E0,1.5287692E1,1.175807E0,6.5531096E0,1.3283461E1,2.4108784E1,1.8450254E1,2.5736925E1],"tree_param":{"num_deleted":"0","num_feature":"5","num_nodes":"15","size_leaf_vector":"0"}},{"base_weights":[-3.471833E-3,-7.284102E-1,2.6644626E-1,-9.699955E-1,-1.1440901E-2,-4.9950033E-2,5.308728E-1,-4.514974E-1,-1.166877E0,-4.7544938E-1,4.4096473E-1,-4.3764555E-1,1.7173392E-1,2.4817467E-1,7.1829855E-1],"categories":[],"categories_nodes":[],"categories_segments":[],"categories_sizes":[],"default_left":[1,1,1,1,1,1,1,0,0,0,0,0,0,0,0],"id":15,"left_children":[1,3,5,7,9,11,13,-1,-1,-1,-1,-1,-1,-1,-1],"loss_changes":[2.2069004E1,5.2888813E0,6.90316E0,1.8082962E0,2.0409472E0,3.3697906E0,2.1986504E0,0E0,0E0,0E0,0E0,0E0,0E0,0E0,0E0],"parents":[2147483647,0,0,1,1,2,2,3,3,4,4,5,5,6,6],"right_children":[2,4,6,8,10,12,14,-1,-1,-1,-1,-1,-1,-1,-1],"split_conditions":[3.8487706E-1,4.9014777E-1,5.531454E-1,1.1313868E-1,3.23242E-1,3.1562102E-1,4.8102188E-1,-2.257487E-2,-5.8343854E-2,-2.3772469E-2,2.2048237E-2,-2.1882279E-2,8.586696E-3,1.2408733E-2,3.5914928E-2],"split_indices":[4,2,4,1,4,3,3,0,0,0,0,0,0,0,0],"split_type":[0,0,0,0,0,0,0,0,0,0,0,0,0,0,0],"sum_hessian":[1.10792694E2,2.9598703E1,8.119399E1,2.187495E1,7.7237525E0,3.73338E1,4.386019E1,6.926607E0,1.4948343E1,3.787835E0,3.9359174E0,1.3227132E1,2.4106668E1,1.8412443E1,2.5447748E1],"tree_param":{"num_deleted":"0","num_feature":"5","num_nodes":"15","size_leaf_vector":"0"}},{"base_weights":[-3.804984E-3,-7.0453185E-1,2.54808E-1,-9.4171226E-1,-1.1118366E-2,-4.7889728E-2,5.0924176E-1,-6.024123E-2,-1.0375268E0,-8.46754E-1,2.2898006E-1,-4.190176E-1,1.6350849E-1,2.368735E-1,6.915156E-1],"categories":[],"categories_nodes":[],"categories_segments":[],"categories_sizes":[],"default_left":[1,1,1,1,1,1,1,0,0,0,0,0,0,0,0],"id":16,"left_children":[1,3,5,7,9,11,13,-1,-1,-1,-1,-1,-1,-1,-1],"loss_changes":[2.0293463E1,4.9541416E0,6.3248825E0,1.8361931E0,1.940537E0,3.071339E0,2.047062E0,0E0,0E0,0E0,0E0,0E0,0E0,0E0,0E0],"parents":[2147483647,0,0,1,1,2,2,3,3,4,4,5,5,6,6],"right_children":[2,4,6,8,10,12,14,-1,-1,-1,-1,-1,-1,-1,-1],"split_conditions":[3.8487706E-1,4.9014777E-1,5.531454E-1,1.7047945E-1,2.4557903E-1,3.1562102E-1,4.8102188E-1,-3.0120616E-3,-5.1876344E-2,-4.23377E-2,1.1449004E-2,-2.0950882E-2,8.175424E-3,1.1843675E-2,3.4575783E-2],"split_indices":[4,2,4,4,4,3,3,0,0,0,0,0,0,0,0],"split_type":[0,0,0,0,0,0,0,0,0,0,0,0,0,0,0],"sum_hessian":[1.0999365E2,2.91866E1,8.080705E1,2.1480995E1,7.7056046E0,3.727412E1,4.3532932E1,2.2657123E0,1.9215282E1,1.1559066E0,6.549698E0,1.3170334E1,2.4103788E1,1.8375032E1,2.51579E1],"tree_param":{"num_deleted":"0","num_feature":"5","num_nodes":"15","size_leaf_vector":"0"}},{"base_weights":[-4.1645304E-3,-6.8139625E-1,2.4368659E-1,-9.132589E-1,-1.41588785E-2,1.18722685E-1,8.5630286E-1,-3.9901036E-1,-1.114443E0,-8.293909E-1,2.1885437E-1,-1.4049459E-1,3.7766966E-1],"categories":[],"categories_nodes":[],"categories_segments":[],"categories_sizes":[],"default_left":[1,1,1,1,1,1,0,0,0,0,0,0,0],"id":17,"left_children":[1,3,5,7,9,11,-1,-1,-1,-1,-1,-1,-1],"loss_changes":[1.8665491E1,4.596095E0,6.1314797E0,1.8410683E0,1.8338946E0,4.6702795E0,0E0,0E0,0E0,0E0,0E0,0E0,0E0],"parents":[2147483647,0,0,1,1,2,2,3,3,4,4,5,5],"right_children":[2,4,6,8,10,12,-1,-1,-1,-1,-1,-1,-1],"split_conditions":[3.8487706E-1,4.9014777E-1,6.9078946E-1,1.1313868E-1,2.4557903E-1,5.6558216E-1,4.2815145E-2,-1.9950518E-2,-5.5722147E-2,-4.1469544E-2,1.0942719E-2,-7.024729E-3,1.8883483E-2],"split_indices":[4,2,2,1,4,4,0,0,0,0,0,0,0],"split_type":[0,0,0,0,0,0,0,0,0,0,0,0,0],"sum_hessian":[1.0921242E2,2.879188E1,8.042053E1,2.1093311E1,7.6985683E0,6.7786896E1,1.2633643E1,6.770493E0,1.4322818E1,1.1423765E0,6.556192E0,3.4104366E1,3.3682526E1],"tree_param":{"num_deleted":"0","num_feature":"5","num_nodes":"13","size_leaf_vector":"0"}},{"base_weights":[-4.4996846E-3,-6.601711E-1,2.3329595E-1,-8.873362E-1,-1.7013125E-2,1.13257274E-1,8.289997E-1,-2.7348803E-2,-9.838533E-1,-4.522894E-1,4.0534022E-1,-1.3375203E-1,3.6091667E-1],"categories":[],"categories_nodes":[],"categories_segments":[],"categories_sizes":[],"default_left":[1,1,1,1,1,1,0,0,0,0,0,0,0],"id":18,"left_children":[1,3,5,7,9,11,-1,-1,-1,-1,-1,-1,-1],"loss_changes":[1.7217686E1,4.2787123E0,5.7019815E0,1.7741451E0,1.7809807E0,4.245885E0,0E0,0E0,0E0,0E0,0E0,0E0,0E0],"parents":[2147483647,0,0,1,1,2,2,3,3,4,4,5,5],"right_children":[2,4,6,8,10,12,-1,-1,-1,-1,-1,-1,-1],"split_conditions":[3.8487706E-1,4.9014777E-1,6.9078946E-1,1.7047945E-1,3.23242E-1,5.6558216E-1,4.1449986E-2,-1.3674402E-3,-4.9192663E-2,-2.261447E-2,2.0267012E-2,-6.6876016E-3,1.8045833E-2],"split_indices":[4,2,2,4,4,4,0,0,0,0,0,0,0],"split_type":[0,0,0,0,0,0,0,0,0,0,0,0,0],"sum_hessian":[1.08441574E2,2.8388912E1,8.0052666E1,2.0698496E1,7.6904163E0,6.7617386E1,1.2435276E1,2.218102E0,1.8480392E1,3.7523623E0,3.938054E0,3.4083397E1,3.3533993E1],"tree_param":{"num_deleted":"0","num_feature":"5","num_nodes":"13","size_leaf_vector":"0"}},{"base_weights":[-4.3456866E-3,-6.381097E-1,2.2335437E-1,-8.610567E-1,-1.6495965E-2,1.080412E-1,8.027655E-1,-3.503432E-1,-1.0671467E0,-8.037648E-1,2.0679998E-1,-1.2733203E-1,3.4489384E-1],"categories":[],"categories_nodes":[],"categories_segments":[],"categories_sizes":[],"default_left":[1,1,1,1,1,1,0,0,0,0,0,0,0],"id":19,"left_children":[1,3,5,7,9,11,-1,-1,-1,-1,-1,-1,-1],"loss_changes":[1.5824538E1,4.002427E0,5.304308E0,1.8693228E0,1.6904218E0,3.8599348E0,0E0,0E0,0E0,0E0,0E0,0E0,0E0],"parents":[2147483647,0,0,1,1,2,2,3,3,4,4,5,5],"right_children":[2,4,6,8,10,12,-1,-1,-1,-1,-1,-1,-1],"split_conditions":[3.8487706E-1,4.9014777E-1,6.9078946E-1,1.1313868E-1,2.4557903E-1,5.6558216E-1,4.0138274E-2,-1.751716E-2,-5.3357333E-2,-4.018824E-2,1.034E-2,-6.3666017E-3,1.7244693E-2],"split_indices":[4,2,2,1,4,4,0,0,0,0,0,0,0],"split_type":[0,0,0,0,0,0,0,0,0,0,0,0,0],"sum_hessian":[1.0767037E2,2.798276E1,7.9687614E1,2.0312363E1,7.6703963E0,6.745027E1,1.2237343E1,6.616328E0,1.3696034E1,1.1204622E0,6.5499344E0,3.4062717E1,3.3387558E1],"tree_param":{"num_deleted":"0","num_feature":"5","num_nodes":"13","size_leaf_vector":"0"}},{"base_weights":[-4.662547E-3,-6.1853075E-1,2.1383888E-1,-8.370667E-1,-1.9171262E-2,9.008007E-2,7.188427E-1,-3.3709744E-1,-1.0425798E0,-4.3338588E-1,3.8098565E-1,-2.6148833E-2,6.6482794E-1,1.9544265E-1,7.873058E-1],"categories":[],"categories_nodes":[],"categories_segments":[],"categories_sizes":[],"default_left":[1,1,1,1,1,1,1,0,0,0,0,0,0,0,0],"id":20,"left_children":[1,3,5,7,9,11,13,-1,-1,-1,-1,-1,-1,-1,-1],"loss_changes":[1.4606432E1,3.727932E0,4.955552E0,1.7984047E0,1.6006633E0,4.403574E0,4.0754414E-1,0E0,0E0,0E0,0E0,0E0,0E0,0E0,0E0],"parents":[2147483647,0,0,1,1,2,2,3,3,4,4,5,5,6,6],"right_children":[2,4,6,8,10,12,14,-1,-1,-1,-1,-1,-1,-1,-1],"split_conditions":[3.8487706E-1,4.9014777E-1,5.9520125E-1,1.1313868E-1,3.23242E-1,7.0330435E-1,4.5972073E-1,-1.6854873E-2,-5.212899E-2,-2.1669295E-2,1.9049283E-2,-1.3074417E-3,3.32414E-2,9.772132E-3,3.9365288E-2],"split_indices":[4,2,2,1,4,4,4,0,0,0,0,0,0,0,0],"split_type":[0,0,0,0,0,0,0,0,0,0,0,0,0,0,0],"sum_hessian":[1.06910614E2,2.758401E1,7.932661E1,1.9923122E1,7.6608877E0,6.465925E1,1.4667352E1,6.572911E0,1.3350211E1,3.7235193E0,3.9373682E0,5.4576893E1,1.0082357E1,2.142519E0,1.2524833E1],"tree_param":{"num_deleted":"0","num_feature":"5","num_nodes":"15","size_leaf_vector":"0"}},{"base_weights":[-4.40405E-3,-3.7320364E-1,3.3536544E-1,-5.0245297E-1,3.3354458E-1,1.493476E-1,6.868226E-1,-5.696371E-1,7.554581E-1,-7.468662E-1,5.8197737E-1,1.5899058E-2,7.2329235E-1,7.779978E-1,2.952544E-1],"categories":[],"categories_nodes":[],"categories_segments":[],"categories_sizes":[],"default_left":[1,1,1,1,1,1,1,0,0,0,0,0,0,0,0],"id":21,"left_children":[1,3,5,7,9,11,13,-1,-1,-1,-1,-1,-1,-1,-1],"loss_changes":[1.355592E1,4.9056654E0,3.5790706E0,4.1698866E0,2.7484145E0,2.9067907E0,4.561901E-1,0E0,0E0,0E0,0E0,0E0,0E0,0E0,0E0],"parents":[2147483647,0,0,1,1,2,2,3,3,4,4,5,5,6,6],"right_children":[2,4,6,8,10,12,14,-1,-1,-1,-1,-1,-1,-1,-1],"split_conditions":[5.0078905E-1,5.992037E-1,4.9014777E-1,7.443609E-1,3.0891615E-1,7.2079694E-1,9.264706E-1,-2.8481856E-2,3.7772905E-2,-3.7343312E-2,2.9098868E-2,7.949529E-4,3.616462E-2,3.889989E-2,1.4762721E-2],"split_indices":[4,3,2,2,4,4,0,0,0,0,0,0,0,0,0],"split_type":[0,0,0,0,0,0,0,0,0,0,0,0,0,0,0],"sum_hessian":[1.0618297E2,5.0869137E1,5.531383E1,4.3248894E1,7.620244E0,3.710172E1,1.821211E1,4.1575527E1,1.6733637E0,1.049548E0,6.5706964E0,3.0936369E1,6.1653495E0,1.3971923E1,4.240187E0],"tree_param":{"num_deleted":"0","num_feature":"5","num_nodes":"15","size_leaf_vector":"0"}},{"base_weights":[-3.3409474E-3,-6.0171694E-1,1.9311787E-1,-7.566425E-1,3.89459E-1,8.602251E-2,7.040104E-1,-1.5132403E-1,-8.239123E-1,-5.278969E-1,1.1126105E0,-2.109513E-1,2.539921E-1,9.1947925E-1,3.4790844E-1],"categories":[],"categories_nodes":[],"categories_segments":[],"categories_sizes":[],"default_left":[1,1,1,1,1,1,1,0,0,0,0,0,0,0,0],"id":22,"left_children":[1,3,5,7,9,11,13,-1,-1,-1,-1,-1,-1,-1,-1],"loss_changes":[1.262951E1,4.372118E0,4.3653984E0,8.2422924E-1,3.4064195E0,3.4462495E0,7.4503994E-1,0E0,0E0,0E0,0E0,0E0,0E0,0E0,0E0],"parents":[2147483647,0,0,1,1,2,2,3,3,4,4,5,5,6,6],"right_children":[2,4,6,8,10,12,14,-1,-1,-1,-1,-1,-1,-1,-1],"split_conditions":[3.800168E-1,5.9520125E-1,7.0384645E-1,1.7047945E-1,3.099118E-1,3.8181818E-1,7.4759996E-1,-7.566202E-3,-4.1195616E-2,-2.6394844E-2,5.5630524E-2,-1.0547565E-2,1.2699606E-2,4.5973964E-2,1.7395422E-2],"split_indices":[4,2,4,4,4,3,4,0,0,0,0,0,0,0,0],"split_type":[0,0,0,0,0,0,0,0,0,0,0,0,0,0,0],"sum_hessian":[1.0544529E2,2.555298E1,7.98923E1,2.2303463E1,3.2495174E0,6.701312E1,1.2879186E1,2.5557137E0,1.974775E1,1.5514395E0,1.6980778E0,2.4117313E1,4.289581E1,7.038368E0,5.840817E0],"tree_param":{"num_deleted":"0","num_feature":"5","num_nodes":"15","size_leaf_vector":"0"}},{"base_weights":[-2.7912229E-3,-5.8105063E-1,1.8493931E-1,-7.3243076E-1,3.794045E-1,8.456079E-2,7.216275E-1,-1.4625296E-1,-7.9844946E-1,-5.1464593E-1,1.083505E0,-1.1829299E-1,2.993573E-1,8.52266E-1,4.36058E-1],"categories":[],"categories_nodes":[],"categories_segments":[],"categories_sizes":[],"default_left":[1,1,1,1,1,1,1,0,0,0,0,0,0,0,0],"id":23,"left_children":[1,3,5,7,9,11,13,-1,-1,-1,-1,-1,-1,-1,-1],"loss_changes":[1.1591452E1,4.082572E0,4.282115E0,7.71224E-1,3.2151482E0,3.0440612E0,9.730291E-2,0E0,0E0,0E0,0E0,0E0,0E0,0E0,0E0],"parents":[2147483647,0,0,1,1,2,2,3,3,4,4,5,5,6,6],"right_children":[2,4,6,8,10,12,14,-1,-1,-1,-1,-1,-1,-1,-1],"split_conditions":[3.800168E-1,5.9520125E-1,6.9078946E-1,1.7047945E-1,3.099118E-1,5.6558216E-1,6.477056E-1,-7.312648E-3,-3.9922472E-2,-2.5732297E-2,5.4175254E-2,-5.9146495E-3,1.4967865E-2,4.26133E-2,2.18029E-2],"split_indices":[4,2,2,4,4,4,4,0,0,0,0,0,0,0,0],"split_type":[0,0,0,0,0,0,0,0,0,0,0,0,0,0,0],"sum_hessian":[1.0478773E2,2.5168133E1,7.96196E1,2.1946495E1,3.2216377E0,6.8049614E1,1.1569981E1,2.5470107E0,1.9399485E1,1.5379095E0,1.6837283E0,3.5228813E1,3.2820805E1,6.576846E0,4.993134E0],"tree_param":{"num_deleted":"0","num_feature":"5","num_nodes":"15","size_leaf_vector":"0"}},{"base_weights":[-2.1744969E-3,-3.3438823E-1,3.0114704E-1,9.458815E-2,-5.3581357E-1,1.2646733E-1,6.392445E-1,-3.5759953E-1,4.2254728E-1,-6.431047E-1,6.708417E-1,2.5284356E-1,-4.0787068E-1,8.4371644E-1,4.2569658E-1],"categories":[],"categories_nodes":[],"categories_segments":[],"categories_sizes":[],"default_left":[1,1,1,1,1,1,1,0,0,0,0,0,0,0,0],"id":24,"left_children":[1,3,5,7,9,11,13,-1,-1,-1,-1,-1,-1,-1,-1],"loss_changes":[1.0689639E1,4.4251637E0,3.1943283E0,2.676063E0,4.910921E0,2.6564412E0,4.54947E-1,0E0,0E0,0E0,0E0,0E0,0E0,0E0,0E0],"parents":[2147483647,0,0,1,1,2,2,3,3,4,4,5,5,6,6],"right_children":[2,4,6,8,10,12,14,-1,-1,-1,-1,-1,-1,-1,-1],"split_conditions":[5.0078905E-1,1.350365E-1,4.9014777E-1,3.7968212E-1,8.452381E-1,1.0294118E-1,6.2539345E-1,-1.7879976E-2,2.1127364E-2,-3.2155234E-2,3.3542085E-2,1.2642178E-2,-2.0393534E-2,4.2185824E-2,2.128483E-2],"split_indices":[4,1,2,4,2,0,4,0,0,0,0,0,0,0,0],"split_type":[0,0,0,0,0,0,0,0,0,0,0,0,0,0,0],"sum_hessian":[1.04082794E2,4.962665E1,5.4456142E1,1.6026136E1,3.3600517E1,3.6811405E1,1.7644737E1,6.699095E0,9.327042E0,3.1285746E1,2.3147707E0,3.0196455E1,6.6149497E0,7.5064106E0,1.0138327E1],"tree_param":{"num_deleted":"0","num_feature":"5","num_nodes":"15","size_leaf_vector":"0"}},{"base_weights":[-1.511788E-3,-7.962765E-1,1.1763133E-1,-1.22077E-1,-9.3562484E-1,-1.0182216E-2,6.9265735E-1,4.041724E-1,-7.130917E-1,-1.1179509E0,-1.948819E-1,-1.05542995E-1,5.824986E-1,8.195868E-1,3.887597E-1],"categories":[],"categories_nodes":[],"categories_segments":[],"categories_sizes":[],"default_left":[1,1,1,1,1,1,1,0,0,0,0,0,0,0,0],"id":25,"left_children":[1,3,5,7,9,11,13,-1,-1,-1,-1,-1,-1,-1,-1],"loss_changes":[9.986189E0,1.1774225E0,6.748375E0,1.3783226E0,1.3006325E0,4.358515E0,3.2535172E-1,0E0,0E0,0E0,0E0,0E0,0E0,0E0,0E0],"parents":[2147483647,0,0,1,1,2,2,3,3,4,4,5,5,6,6],"right_children":[2,4,6,8,10,12,14,-1,-1,-1,-1,-1,-1,-1,-1],"split_conditions":[3.0891615E-1,1.7047945E-1,5.9520125E-1,4.8102188E-1,4.9014777E-1,7.0330435E-1,6.477056E-1,2.020862E-2,-3.5654586E-2,-5.5897545E-2,-9.744096E-3,-5.27715E-3,2.912493E-2,4.097934E-2,1.9437985E-2],"split_indices":[4,4,2,3,2,4,4,0,0,0,0,0,0,0,0],"split_type":[0,0,0,0,0,0,0,0,0,0,0,0,0,0,0],"sum_hessian":[1.0347189E2,1.2748366E1,9.0723526E1,2.5049412E0,1.0243424E1,7.502883E1,1.56946945E1,1.4923054E0,1.0126357E0,7.8114815E0,2.431943E0,6.533804E1,9.690795E0,9.87378E0,5.8209147E0],"tree_param":{"num_deleted":"0","num_feature":"5","num_nodes":"15","size_leaf_vector":"0"}},{"base_weights":[-1.4394601E-3,-7.778493E-1,1.1311847E-1,-1.20506644E-1,-9.16832E-1,-9.35486E-3,6.6992694E-1,-3.8064575E-1,2.2576867E-1,-1.1011957E0,-1.8841858E-1,-1.182288E-1,4.7146788E-1,7.930082E-1,3.7550968E-1],"categories":[],"categories_nodes":[],"categories_segments":[],"categories_sizes":[],"default_left":[1,1,1,1,1,1,1,0,0,0,0,0,0,0,0],"id":26,"left_children":[1,3,5,7,9,11,13,-1,-1,-1,-1,-1,-1,-1,-1],"loss_changes":[9.328077E0,1.1214399E0,6.2393723E0,4.016458E-1,1.2670021E0,4.0294986E0,2.998948E-1,0E0,0E0,0E0,0E0,0E0,0E0,0E0,0E0],"parents":[2147483647,0,0,1,1,2,2,3,3,4,4,5,5,6,6],"right_children":[2,4,6,8,10,12,14,-1,-1,-1,-1,-1,-1,-1,-1],"split_conditions":[3.0891615E-1,1.7047945E-1,5.9520125E-1,1.4417604E-1,4.9014777E-1,5.992037E-1,6.477056E-1,-1.9032288E-2,1.1288433E-2,-5.5059787E-2,-9.4209295E-3,-5.91144E-3,2.3573395E-2,3.965041E-2,1.8775484E-2],"split_indices":[4,4,2,4,2,3,4,0,0,0,0,0,0,0,0],"split_type":[0,0,0,0,0,0,0,0,0,0,0,0,0,0,0],"sum_hessian":[1.02886696E2,1.2484397E1,9.0402306E1,2.5047603E0,9.979637E0,7.490885E1,1.5493448E1,1.3735924E0,1.1311679E0,7.5555353E0,2.4241018E0,6.169354E1,1.3215317E1,9.731645E0,5.7618036E0],"tree_param":{"num_deleted":"0","num_feature":"5","num_nodes":"15","size_leaf_vector":"0"}},{"base_weights":[-1.3683796E-3,-3.0983868E-1,2.7769426E-1,1.0157556E-1,-5.0571376E-1,1.11549355E-1,5.8886075E-1,-3.1923312E-1,3.984042E-1,-6.0573685E-1,6.167735E-1,2.3707314E-1,-4.691498E-1,8.581357E-1,3.242437E-1],"categories":[],"categories_nodes":[],"categories_segments":[],"categories_sizes":[],"default_left":[1,1,1,1,1,1,1,0,0,0,0,0,0,0,0],"id":27,"left_children":[1,3,5,7,9,11,13,-1,-1,-1,-1,-1,-1,-1,-1],"loss_changes":[8.984302E0,4.046021E0,2.7673402E0,2.2282748E0,4.1627645E0,2.8051383E0,1.0642605E0,0E0,0E0,0E0,0E0,0E0,0E0,0E0,0E0],"parents":[2147483647,0,0,1,1,2,2,3,3,4,4,5,5,6,6],"right_children":[2,4,6,8,10,12,14,-1,-1,-1,-1,-1,-1,-1,-1],"split_conditions":[5.0078905E-1,1.350365E-1,3.809524E-1,3.7968212E-1,8.452381E-1,1.0294118E-1,6.2539345E-1,-1.5961656E-2,1.9920211E-2,-3.0286843E-2,3.0838674E-2,1.1853657E-2,-2.345749E-2,4.2906787E-2,1.6212186E-2],"split_indices":[4,1,2,4,2,0,4,0,0,0,0,0,0,0,0],"split_type":[0,0,0,0,0,0,0,0,0,0,0,0,0,0,0],"sum_hessian":[1.0236895E2,4.8570168E1,5.3798782E1,1.5821099E1,3.2749065E1,3.595785E1,1.7840927E1,6.512692E0,9.308407E0,3.0492308E1,2.2567594E0,3.0053288E1,5.9045663E0,7.7309546E0,1.0109973E1],"tree_param":{"num_deleted":"0","num_feature":"5","num_nodes":"15","size_leaf_vector":"0"}},{"base_weights":[-8.09651E-4,-7.4678326E-1,1.06499895E-1,-9.883236E-2,-8.8849604E-1,-8.285249E-3,6.373854E-1,-3.5808513E-1,2.3396577E-1,-1.0778959E0,-1.7163913E-1,-9.859146E-2,5.5728704E-1,7.829846E-1,3.8005784E-1],"categories":[],"categories_nodes":[],"categories_segments":[],"categories_sizes":[],"default_left":[1,1,1,1,1,1,1,0,0,0,0,0,0,0,0],"id":28,"left_children":[1,3,5,7,9,11,13,-1,-1,-1,-1,-1,-1,-1,-1],"loss_changes":[8.307431E0,1.1105742E0,5.5343685E0,3.8293394E-1,1.2519741E0,3.9156919E0,3.072486E-1,0E0,0E0,0E0,0E0,0E0,0E0,0E0,0E0],"parents":[2147483647,0,0,1,1,2,2,3,3,4,4,5,5,6,6],"right_children":[2,4,6,8,10,12,14,-1,-1,-1,-1,-1,-1,-1,-1],"split_conditions":[3.0891615E-1,1.7047945E-1,5.9520125E-1,1.4417604E-1,4.9014777E-1,7.0330435E-1,5E-1,-1.7904257E-2,1.1698289E-2,-5.3894795E-2,-8.581957E-3,-4.9295733E-3,2.7864352E-2,3.9149232E-2,1.9002892E-2],"split_indices":[4,4,2,4,2,4,0,0,0,0,0,0,0,0,0],"split_type":[0,0,0,0,0,0,0,0,0,0,0,0,0,0,0],"sum_hessian":[1.01784386E2,1.2051056E1,8.973333E1,2.4672961E0,9.583759E0,7.459024E1,1.5143096E1,1.3441827E0,1.1231134E0,7.182452E0,2.4013073E0,6.50321E1,9.558144E0,8.366482E0,6.7766137E0],"tree_param":{"num_deleted":"0","num_feature":"5","num_nodes":"15","size_leaf_vector":"0"}},{"base_weights":[-6.6922E-4,-2.2979684E-1,3.2828182E-1,-5.569366E-1,-4.534242E-3,1.8543826E-1,6.562651E-1,-1.7103674E-1,-8.349665E-1,-4.4037905E-1,1.2572451E-1,2.830236E-2,4.6592793E-1,3.7118107E-1,9.241283E-1],"categories":[],"categories_nodes":[],"categories_segments":[],"categories_sizes":[],"default_left":[1,1,1,1,1,1,1,0,0,0,0,0,0,0,0],"id":29,"left_children":[1,3,5,7,9,11,13,-1,-1,-1,-1,-1,-1,-1,-1],"loss_changes":[7.778615E0,4.480175E0,1.8634677E0,2.5177498E0,2.1577954E0,1.3492166E0,6.085844E-1,0E0,0E0,0E0,0E0,0E0,0E0,0E0,0E0],"parents":[2147483647,0,0,1,1,2,2,3,3,4,4,5,5,6,6],"right_children":[2,4,6,8,10,12,14,-1,-1,-1,-1,-1,-1,-1,-1],"split_conditions":[5.492717E-1,3.1562102E-1,5.992037E-1,9.1240875E-2,3.2347423E-1,2.8431374E-1,6.7031103E-1,-8.551837E-3,-4.1748326E-2,-2.2018952E-2,6.2862257E-3,1.415118E-3,2.3296397E-2,1.8559054E-2,4.6206415E-2],"split_indices":[4,3,3,1,4,2,4,0,0,0,0,0,0,0,0],"split_type":[0,0,0,0,0,0,0,0,0,0,0,0,0,0,0],"sum_hessian":[1.01202415E2,5.9829906E1,4.137251E1,2.3797445E1,3.603246E1,2.9911024E1,1.1461487E1,1.0641889E1,1.3155558E1,7.7431464E0,2.8289312E1,1.9876638E1,1.0034386E1,6.707973E0,4.7535133E0],"tree_param":{"num_deleted":"0","num_feature":"5","num_nodes":"15","size_leaf_vector":"0"}},{"base_weights":[-4.2474087E-4,-7.154485E-1,9.988676E-2,-7.685318E-2,-8.600158E-1,-3.2895595E-2,5.1753867E-1,-3.354619E-1,2.4237716E-1,-1.0560222E0,-1.5129018E-1,-2.166963E-1,2.1966459E-1,1.1894703E0,4.0643752E-1],"categories":[],"categories_nodes":[],"categories_segments":[],"categories_sizes":[],"default_left":[1,1,1,1,1,1,1,0,0,0,0,0,0,0,0],"id":30,"left_children":[1,3,5,7,9,11,13,-1,-1,-1,-1,-1,-1,-1,-1],"loss_changes":[7.3584037E0,1.0991578E0,5.006666E0,3.6431435E-1,1.2563076E0,3.2603445E0,1.1413069E0,0E0,0E0,0E0,0E0,0E0,0E0,0E0,0E0],"parents":[2147483647,0,0,1,1,2,2,3,3,4,4,5,5,6,6],"right_children":[2,4,6,8,10,12,14,-1,-1,-1,-1,-1,-1,-1,-1],"split_conditions":[3.0891615E-1,1.7047945E-1,5.992037E-1,1.4417604E-1,4.9014777E-1,5.6558216E-1,3.8764197E-1,-1.6773095E-2,1.2118858E-2,-5.280111E-2,-7.564509E-3,-1.0834816E-2,1.098323E-2,5.9473515E-2,2.0321876E-2],"split_indices":[4,4,3,4,2,4,4,0,0,0,0,0,0,0,0],"split_type":[0,0,0,0,0,0,0,0,0,0,0,0,0,0,0],"sum_hessian":[1.00595375E2,1.1621889E1,8.897349E1,2.4280593E0,9.19383E0,6.8209236E1,2.0764248E1,1.3133045E0,1.1147549E0,6.8181586E0,2.375671E0,3.9560837E1,2.8648403E1,1.5689788E0,1.9195269E1],"tree_param":{"num_deleted":"0","num_feature":"5","num_nodes":"15","size_leaf_vector":"0"}},{"base_weights":[-3.042584E-4,-6.988342E-1,9.6132174E-2,-7.449162E-2,-8.434012E-1,-9.955359E-3,5.9750587E-1,-3.274906E-1,2.3521821E-1,-1.0418888E0,-1.4625287E-1,-9.322928E-2,5.191227E-1,7.2799337E-1,2.948769E-1],"categories":[],"categories_nodes":[],"categories_segments":[],"categories_sizes":[],"default_left":[1,1,1,1,1,1,1,0,0,0,0,0,0,0,0],"id":31,"left_children":[1,3,5,7,9,11,13,-1,-1,-1,-1,-1,-1,-1,-1],"loss_changes":[6.8736124E0,1.0544019E0,4.7750273E0,3.4533396E-1,1.2249856E0,3.352205E0,4.0432787E-1,0E0,0E0,0E0,0E0,0E0,0E0,0E0,0E0],"parents":[2147483647,0,0,1,1,2,2,3,3,4,4,5,5,6,6],"right_children":[2,4,6,8,10,12,14,-1,-1,-1,-1,-1,-1,-1,-1],"split_conditions":[3.0891615E-1,1.7047945E-1,5.9520125E-1,1.4417604E-1,4.9014777E-1,7.0330435E-1,6.477056E-1,-1.637453E-2,1.1760911E-2,-5.209444E-2,-7.312644E-3,-4.661464E-3,2.5956137E-2,3.639967E-2,1.4743845E-2],"split_indices":[4,4,2,4,2,4,4,0,0,0,0,0,0,0,0],"split_type":[0,0,0,0,0,0,0,0,0,0,0,0,0,0,0],"sum_hessian":[1.00040016E2,1.1377972E1,8.866205E1,2.4241319E0,8.953839E0,7.398701E1,1.4675042E1,1.3026217E0,1.1215101E0,6.5846105E0,2.369229E0,6.463725E1,9.349752E0,9.271707E0,5.4033356E0],"tree_param":{"num_deleted":"0","num_feature":"5","num_nodes":"15","size_leaf_vector":"0"}},{"base_weights":[-2.271521E-4,-2.6635233E-1,2.3773189E-1,1.21599816E-1,-4.5542035E-1,8.985365E-2,5.248344E-1,-1.7530558E-1,4.6728376E-1,-5.4859644E-1,5.714668E-1,2.1011712E-1,-4.608375E-1,8.098341E-1,2.4936952E-1],"categories":[],"categories_nodes":[],"categories_segments":[],"categories_sizes":[],"default_left":[1,1,1,1,1,1,1,0,0,0,0,0,0,0,0],"id":32,"left_children":[1,3,5,7,9,11,13,-1,-1,-1,-1,-1,-1,-1,-1],"loss_changes":[6.428163E0,3.5700965E0,2.2280805E0,1.7743803E0,3.4162097E0,2.519319E0,1.2121468E0,0E0,0E0,0E0,0E0,0E0,0E0,0E0,0E0],"parents":[2147483647,0,0,1,1,2,2,3,3,4,4,5,5,6,6],"right_children":[2,4,6,8,10,12,14,-1,-1,-1,-1,-1,-1,-1,-1],"split_conditions":[5.0078905E-1,1.350365E-1,3.809524E-1,4.020197E-1,8.452381E-1,1.0294118E-1,6.2539345E-1,-8.765279E-3,2.3364188E-2,-2.7429823E-2,2.857334E-2,1.0505856E-2,-2.3041876E-2,4.0491708E-2,1.2468476E-2],"split_indices":[4,1,2,4,2,0,4,0,0,0,0,0,0,0,0],"split_type":[0,0,0,0,0,0,0,0,0,0,0,0,0,0,0],"sum_hessian":[9.950775E1,4.691751E1,5.259024E1,1.54900465E1,3.1427464E1,3.5578003E1,1.7012238E1,8.598086E0,6.8919597E0,2.9240088E1,2.1873753E0,2.9708515E1,5.869488E0,7.40797E0,9.604267E0],"tree_param":{"num_deleted":"0","num_feature":"5","num_nodes":"15","size_leaf_vector":"0"}},{"base_weights":[3.4018516E-4,-6.717062E-1,9.0964094E-2,-5.670654E-2,-8.189327E-1,-3.280842E-2,4.8323232E-1,-3.0809593E-1,2.405093E-1,-1.022782E0,-1.3267271E-1,-1.6678004E-1,2.6596224E-1,1.161645E0,3.7204522E-1],"categories":[],"categories_nodes":[],"categories_segments":[],"categories_sizes":[],"default_left":[1,1,1,1,1,1,1,0,0,0,0,0,0,0,0],"id":33,"left_children":[1,3,5,7,9,11,13,-1,-1,-1,-1,-1,-1,-1,-1],"loss_changes":[6.1506214E0,1.040102E0,4.3363194E0,3.2755882E-1,1.2083802E0,2.7893686E0,1.182559E0,0E0,0E0,0E0,0E0,0E0,0E0,0E0,0E0],"parents":[2147483647,0,0,1,1,2,2,3,3,4,4,5,5,6,6],"right_children":[2,4,6,8,10,12,14,-1,-1,-1,-1,-1,-1,-1,-1],"split_conditions":[3.0891615E-1,1.7047945E-1,5.992037E-1,1.4417604E-1,4.9014777E-1,3.809524E-1,3.8764197E-1,-1.5404797E-2,1.2025465E-2,-5.1139098E-2,-6.6336356E-3,-8.339002E-3,1.3298112E-2,5.8082253E-2,1.8602261E-2],"split_indices":[4,4,3,4,2,2,4,0,0,0,0,0,0,0,0],"split_type":[0,0,0,0,0,0,0,0,0,0,0,0,0,0,0],"sum_hessian":[9.898642E1,1.1000106E1,8.798631E1,2.3922565E0,8.607849E0,6.7579346E1,2.040697E1,1.2762117E0,1.1160448E0,6.2584467E0,2.349403E0,4.696263E1,2.0616714E1,1.5432289E0,1.886374E1],"tree_param":{"num_deleted":"0","num_feature":"5","num_nodes":"15","size_leaf_vector":"0"}},{"base_weights":[4.900049E-4,-1.99969E-1,2.8660154E-1,-4.9814117E-1,1.206193E-3,1.5636931E-1,5.949868E-1,-1.3161367E-1,-7.724316E-1,-3.7666804E-1,1.0932458E-1,8.548084E-2,6.9428784E-1,8.612606E-1,2.8793198E-1],"categories":[],"categories_nodes":[],"categories_segments":[],"categories_sizes":[],"default_left":[1,1,1,1,1,1,1,0,0,0,0,0,0,0,0],"id":34,"left_children":[1,3,5,7,9,11,13,-1,-1,-1,-1,-1,-1,-1,-1],"loss_changes":[5.766809E0,3.5472343E0,1.5706017E0,2.2933497E0,1.5243363E0,1.1029505E0,7.2846365E-1,0E0,0E0,0E0,0E0,0E0,0E0,0E0,0E0],"parents":[2147483647,0,0,1,1,2,2,3,3,4,4,5,5,6,6],"right_children":[2,4,6,8,10,12,14,-1,-1,-1,-1,-1,-1,-1,-1],"split_conditions":[5.492717E-1,3.1562102E-1,5.992037E-1,9.1240875E-2,3.2347423E-1,7.66307E-1,6.477056E-1,-6.580684E-3,-3.8621582E-2,-1.8833403E-2,5.4662293E-3,4.274042E-3,3.4714393E-2,4.306303E-2,1.43965995E-2],"split_indices":[4,3,3,1,4,4,4,0,0,0,0,0,0,0,0],"split_type":[0,0,0,0,0,0,0,0,0,0,0,0,0,0,0],"sum_hessian":[9.854902E1,5.8125492E1,4.0423523E1,2.2822672E1,3.5302822E1,2.9480751E1,1.0942771E1,1.0402245E1,1.2420427E1,7.3012104E0,2.800161E1,2.7072031E1,2.408721E0,4.893921E0,6.04885E0],"tree_param":{"num_deleted":"0","num_feature":"5","num_nodes":"15","size_leaf_vector":"0"}},{"base_weights":[8.298324E-4,-6.435714E-1,8.553849E-2,-3.7955567E-2,-7.935824E-1,-9.969485E-3,5.485744E-1,-2.8837302E-1,2.4693918E-1,-1.0042692E0,-1.1566285E-1,-8.76426E-2,4.8810738E-1,9.887013E-1,4.2345443E-1],"categories":[],"categories_nodes":[],"categories_segments":[],"categories_sizes":[],"default_left":[1,1,1,1,1,1,1,0,0,0,0,0,0,0,0],"id":35,"left_children":[1,3,5,7,9,11,13,-1,-1,-1,-1,-1,-1,-1,-1],"loss_changes":[5.4613075E0,1.0259018E0,3.9155674E0,3.107701E-1,1.2073021E0,2.9164596E0,4.1488218E-1,0E0,0E0,0E0,0E0,0E0,0E0,0E0,0E0],"parents":[2147483647,0,0,1,1,2,2,3,3,4,4,5,5,6,6],"right_children":[2,4,6,8,10,12,14,-1,-1,-1,-1,-1,-1,-1,-1],"split_conditions":[3.0891615E-1,1.7047945E-1,5.9520125E-1,1.4417604E-1,4.9014777E-1,7.0330435E-1,3.797911E-1,-1.4418651E-2,1.234696E-2,-5.0213464E-2,-5.7831425E-3,-4.38213E-3,2.440537E-2,4.9435064E-2,2.1172723E-2],"split_indices":[4,4,2,4,2,4,4,0,0,0,0,0,0,0,0],"split_type":[0,0,0,0,0,0,0,0,0,0,0,0,0,0,0],"sum_hessian":[9.804044E1,1.0623929E1,8.741651E1,2.357874E0,8.266055E0,7.3279915E1,1.4136594E1,1.2483699E0,1.109504E0,5.9389296E0,2.3271258E0,6.410676E1,9.173158E0,1.6014031E0,1.2535191E1],"tree_param":{"num_deleted":"0","num_feature":"5","num_nodes":"15","size_leaf_vector":"0"}},{"base_weights":[1.099319E-3,-3.8791203E-1,1.3327104E-1,-5.0462896E-1,5.563409E-1,4.7772855E-2,5.475152E-1,-7.4175966E-1,1.2407464E-1,-5.3729907E-2,9.3085766E-1,8.183928E-2,-8.599181E-1,7.911208E-1,1.7284252E-1],"categories":[],"categories_nodes":[],"categories_segments":[],"categories_sizes":[],"default_left":[1,1,1,1,1,1,1,0,0,0,0,0,0,0,0],"id":36,"left_children":[1,3,5,7,9,11,13,-1,-1,-1,-1,-1,-1,-1,-1],"loss_changes":[5.119166E0,3.06354E0,2.6056108E0,3.5204668E0,7.9334784E-1,2.0088758E0,1.0148723E0,0E0,0E0,0E0,0E0,0E0,0E0,0E0,0E0],"parents":[2147483647,0,0,1,1,2,2,3,3,4,4,5,5,6,6],"right_children":[2,4,6,8,10,12,14,-1,-1,-1,-1,-1,-1,-1,-1],"split_conditions":[3.9164066E-1,6.753247E-1,7.0384645E-1,4.9014777E-1,3.6225635E-1,6.941463E-1,7.4759996E-1,-3.7087984E-2,6.203732E-3,-2.6864954E-3,4.6542883E-2,4.091964E-3,-4.2995907E-2,3.955604E-2,8.642126E-3],"split_indices":[4,3,4,2,4,4,4,0,0,0,0,0,0,0,0],"split_type":[0,0,0,0,0,0,0,0,0,0,0,0,0,0,0],"sum_hessian":[9.755763E1,2.4249866E1,7.330777E1,2.1996508E1,2.2533581E0,6.1690456E1,1.1617314E1,1.584163E1,6.1548777E0,1.1829394E0,1.0704188E0,6.033584E1,1.3546181E0,6.3664565E0,5.250858E0],"tree_param":{"num_deleted":"0","num_feature":"5","num_nodes":"15","size_leaf_vector":"0"}},{"base_weights":[1.245511E-3,-6.150726E-1,7.997344E-2,-1.6394235E-2,-7.6903915E-1,-4.623142E-3,5.72348E-1,-2.7114314E-1,2.615864E-1,-9.8296094E-1,-1.1434588E-1,-3.9304823E-1,7.573562E-2,1.1518129E0,3.668905E-1],"categories":[],"categories_nodes":[],"categories_segments":[],"categories_sizes":[],"default_left":[1,1,1,1,1,1,1,0,0,0,0,0,0,0,0],"id":37,"left_children":[1,3,5,7,9,11,13,-1,-1,-1,-1,-1,-1,-1,-1],"loss_changes":[4.8084445E0,1.0220933E0,3.6623116E0,3.0589926E-1,1.1350741E0,2.4010499E0,1.1120663E0,0E0,0E0,0E0,0E0,0E0,0E0,0E0,0E0],"parents":[2147483647,0,0,1,1,2,2,3,3,4,4,5,5,6,6],"right_children":[2,4,6,8,10,12,14,-1,-1,-1,-1,-1,-1,-1,-1],"split_conditions":[3.0891615E-1,1.7047945E-1,6.7857146E-1,1.4417604E-1,4.9014777E-1,3.9164066E-1,4.0665558E-1,-1.35571575E-2,1.307932E-2,-4.914805E-2,-5.717294E-3,-1.9652411E-2,3.786781E-3,5.7590645E-2,1.8344525E-2],"split_indices":[4,4,3,4,2,4,4,0,0,0,0,0,0,0,0],"split_type":[0,0,0,0,0,0,0,0,0,0,0,0,0,0,0],"sum_hessian":[9.708559E1,1.0225225E1,8.686037E1,2.3180969E0,7.907129E0,7.49701E1,1.1890263E1,1.2224281E0,1.0956688E0,5.581847E0,2.3252816E0,1.2184326E1,6.2785774E1,1.9066699E0,9.983593E0],"tree_param":{"num_deleted":"0","num_feature":"5","num_nodes":"15","size_leaf_vector":"0"}},{"base_weights":[1.1934822E-3,-1.7217864E-1,2.6771525E-1,-4.712291E-1,1.8335953E-2,1.9444793E-1,8.046394E-1,-9.594322E-2,-7.54738E-1,2.1418883E-1,-2.2937638E-1,2.7947515E-1,-8.749735E-1,9.148072E-1,2.6872182E-1],"categories":[],"categories_nodes":[],"categories_segments":[],"categories_sizes":[],"default_left":[1,1,1,1,1,1,1,0,0,0,0,0,0,0,0],"id":38,"left_children":[1,3,5,7,9,11,13,-1,-1,-1,-1,-1,-1,-1,-1],"loss_changes":[4.558923E0,3.41459E0,1.3731651E0,2.406784E0,1.8674747E0,3.4755516E0,1.1007309E-2,0E0,0E0,0E0,0E0,0E0,0E0,0E0,0E0],"parents":[2147483647,0,0,1,1,2,2,3,3,4,4,5,5,6,6],"right_children":[2,4,6,8,10,12,14,-1,-1,-1,-1,-1,-1,-1,-1],"split_conditions":[5.6558216E-1,3.1562102E-1,7.66307E-1,9.1240875E-2,4.852941E-1,7.4759996E-1,8.07886E-1,-4.797161E-3,-3.77369E-2,1.0709441E-2,-1.1468819E-2,1.3973758E-2,-4.3748673E-2,4.5740362E-2,1.3436091E-2],"split_indices":[4,3,4,1,0,4,4,0,0,0,0,0,0,0,0],"split_type":[0,0,0,0,0,0,0,0,0,0,0,0,0,0,0],"sum_hessian":[9.666452E1,5.878132E1,3.78832E1,2.2301395E1,3.647992E1,3.453306E1,3.350143E0,1.0173268E1,1.2128127E1,2.0448063E1,1.6031857E1,3.26739E1,1.8591589E0,2.1924515E0,1.1576917E0],"tree_param":{"num_deleted":"0","num_feature":"5","num_nodes":"15","size_leaf_vector":"0"}},{"base_weights":[9.85239E-4,-5.9454274E-1,7.5591385E-2,-6.8099913E-3,-7.5010383E-1,-1.346774E-2,5.143913E-1,-2.5644004E-1,2.5824785E-1,-9.679816E-1,-1.08396865E-1,-8.3197586E-2,4.4200182E-1,9.656271E-1,3.8747966E-1],"categories":[],"categories_nodes":[],"categories_segments":[],"categories_sizes":[],"default_left":[1,1,1,1,1,1,1,0,0,0,0,0,0,0,0],"id":39,"left_children":[1,3,5,7,9,11,13,-1,-1,-1,-1,-1,-1,-1,-1],"loss_changes":[4.366539E0,9.9526405E-1,3.4195454E0,2.8451377E-1,1.103415E0,2.3732455E0,4.710393E-1,0E0,0E0,0E0,0E0,0E0,0E0,0E0,0E0],"parents":[2147483647,0,0,1,1,2,2,3,3,4,4,5,5,6,6],"right_children":[2,4,6,8,10,12,14,-1,-1,-1,-1,-1,-1,-1,-1],"split_conditions":[3.0891615E-1,1.7047945E-1,5.9520125E-1,1.4417604E-1,4.9014777E-1,7.0330435E-1,3.797911E-1,-1.2822002E-2,1.2912393E-2,-4.839908E-2,-5.4198434E-3,-4.1598794E-3,2.2100091E-2,4.8281353E-2,1.9373983E-2],"split_indices":[4,4,2,4,2,4,4,0,0,0,0,0,0,0,0],"split_type":[0,0,0,0,0,0,0,0,0,0,0,0,0,0,0],"sum_hessian":[9.6267426E1,9.941599E0,8.632583E1,2.2990863E0,7.642513E0,7.25669E1,1.3758921E1,1.2007446E0,1.0983417E0,5.3258033E0,2.3167098E0,6.364114E1,8.925766E0,1.5695851E0,1.2189335E1],"tree_param":{"num_deleted":"0","num_feature":"5","num_nodes":"15","size_leaf_vector":"0"}},{"base_weights":[1.2485553E-3,-5.804878E-1,7.30307E-2,-6.4745788E-3,-7.358445E-1,-6.4135035E-3,5.408979E-1,-2.50416E-1,2.5060573E-1,-9.796159E-1,-1.381584E-1,-3.718842E-1,6.869726E-2,1.1160368E0,3.3828938E-1],"categories":[],"categories_nodes":[],"categories_segments":[],"categories_sizes":[],"default_left":[1,1,1,1,1,1,1,0,0,0,0,0,0,0,0],"id":40,"left_children":[1,3,5,7,9,11,13,-1,-1,-1,-1,-1,-1,-1,-1],"loss_changes":[4.085596E0,9.5360565E-1,3.2400684E0,2.6957974E-1,1.0956492E0,2.096046E0,1.0966849E0,0E0,0E0,0E0,0E0,0E0,0E0,0E0,0E0],"parents":[2147483647,0,0,1,1,2,2,3,3,4,4,5,5,6,6],"right_children":[2,4,6,8,10,12,14,-1,-1,-1,-1,-1,-1,-1,-1],"split_conditions":[3.0891615E-1,1.7047945E-1,6.7857146E-1,1.4417604E-1,7.591241E-1,3.9164066E-1,4.0665558E-1,-1.25208E-2,1.2530287E-2,-4.89808E-2,-6.90792E-3,-1.8594211E-2,3.434863E-3,5.580184E-2,1.691447E-2],"split_indices":[4,4,3,4,1,4,4,0,0,0,0,0,0,0,0],"split_type":[0,0,0,0,0,0,0,0,0,0,0,0,0,0,0],"sum_hessian":[9.5823975E1,9.746848E0,8.607713E1,2.297969E0,7.448879E0,7.442586E1,1.1651275E1,1.1924171E0,1.105552E0,4.837037E0,2.6118414E0,1.2014599E1,6.241126E1,1.8607832E0,9.790491E0],"tree_param":{"num_deleted":"0","num_feature":"5","num_nodes":"15","size_leaf_vector":"0"}},{"base_weights":[1.1725158E-3,-5.662942E-1,7.021528E-2,-6.1788983E-3,-7.2101957E-1,-1.4043644E-2,4.910853E-1,-2.4453732E-1,2.4319984E-1,-9.4674057E-1,-9.256786E-2,-8.032639E-2,4.2295903E-1,9.4643176E-1,3.640132E-1],"categories":[],"categories_nodes":[],"categories_segments":[],"categories_sizes":[],"default_left":[1,1,1,1,1,1,1,0,0,0,0,0,0,0,0],"id":41,"left_children":[1,3,5,7,9,11,13,-1,-1,-1,-1,-1,-1,-1,-1],"loss_changes":[3.8183033E0,9.117093E-1,3.0874996E0,2.5543863E-1,1.0861602E0,2.1586707E0,4.955461E-1,0E0,0E0,0E0,0E0,0E0,0E0,0E0,0E0],"parents":[2147483647,0,0,1,1,2,2,3,3,4,4,5,5,6,6],"right_children":[2,4,6,8,10,12,14,-1,-1,-1,-1,-1,-1,-1,-1],"split_conditions":[3.0891615E-1,1.7047945E-1,5.9520125E-1,1.4417604E-1,4.9014777E-1,7.0330435E-1,3.797911E-1,-1.2226867E-2,1.2159992E-2,-4.733703E-2,-4.6283933E-3,-4.0163198E-3,2.1147951E-2,4.7321588E-2,1.820066E-2],"split_indices":[4,4,2,4,2,4,4,0,0,0,0,0,0,0,0],"split_type":[0,0,0,0,0,0,0,0,0,0,0,0,0,0,0],"sum_hessian":[9.5441864E1,9.57145E0,8.5870415E1,2.2968066E0,7.2746434E0,7.2352036E1,1.3518374E1,1.1842774E0,1.112529E0,4.979641E0,2.2950027E0,6.3531963E1,8.820075E0,1.5426166E0,1.1975758E1],"tree_param":{"num_deleted":"0","num_feature":"5","num_nodes":"15","size_leaf_vector":"0"}},{"base_weights":[1.4185195E-3,-2.0582768E-1,1.8143727E-1,1.6163035E-1,-3.9135107E-1,5.1685177E-2,4.453291E-1,2.7223074E-1,-6.459739E-1,-4.750142E-1,5.0595415E-1,1.655083E-1,-4.602138E-1,7.5224197E-1,1.5364869E-1],"categories":[],"categories_nodes":[],"categories_segments":[],"categories_sizes":[],"default_left":[1,1,1,1,1,1,1,0,0,0,0,0,0,0,0],"id":42,"left_children":[1,3,5,7,9,11,13,-1,-1,-1,-1,-1,-1,-1,-1],"loss_changes":[3.6197162E0,3.1380553E0,1.7546643E0,1.590686E0,2.5122762E0,2.1700048E0,1.4046226E0,0E0,0E0,0E0,0E0,0E0,0E0,0E0,0E0],"parents":[2147483647,0,0,1,1,2,2,3,3,4,4,5,5,6,6],"right_children":[2,4,6,8,10,12,14,-1,-1,-1,-1,-1,-1,-1,-1],"split_conditions":[5.0078905E-1,1.350365E-1,3.809524E-1,4.706713E-1,8.452381E-1,1.0294118E-1,6.2539345E-1,1.3611537E-2,-3.2298695E-2,-2.3750711E-2,2.5297707E-2,8.275415E-3,-2.3010692E-2,3.76121E-2,7.6824347E-3],"split_indices":[4,1,2,4,2,0,4,0,0,0,0,0,0,0,0],"split_type":[0,0,0,0,0,0,0,0,0,0,0,0,0,0,0],"sum_hessian":[9.502101E1,4.410354E1,5.0917473E1,1.4839796E1,2.9263742E1,3.4935844E1,1.5981629E1,1.36353655E1,1.2044307E0,2.7198431E1,2.0653117E0,2.9134361E1,5.8014827E0,7.0180655E0,8.963564E0],"tree_param":{"num_deleted":"0","num_feature":"5","num_nodes":"15","size_leaf_vector":"0"}},{"base_weights":[1.4914473E-3,-5.461983E-1,6.688578E-2,3.7771717E-3,-7.0254797E-1,-7.5863E-3,5.117914E-1,-2.3047403E-1,2.4199252E-1,-9.574457E-1,-1.0785933E-1,-3.502142E-1,6.232512E-2,1.0879415E0,3.103905E-1],"categories":[],"categories_nodes":[],"categories_segments":[],"categories_sizes":[],"default_left":[1,1,1,1,1,1,1,0,0,0,0,0,0,0,0],"id":43,"left_children":[1,3,5,7,9,11,13,-1,-1,-1,-1,-1,-1,-1,-1],"loss_changes":[3.4618835E0,8.892181E-1,2.864182E0,2.386313E-1,1.1144683E0,1.8167857E0,1.1003482E0,0E0,0E0,0E0,0E0,0E0,0E0,0E0,0E0],"parents":[2147483647,0,0,1,1,2,2,3,3,4,4,5,5,6,6],"right_children":[2,4,6,8,10,12,14,-1,-1,-1,-1,-1,-1,-1,-1],"split_conditions":[3.0891615E-1,1.7047945E-1,6.7857146E-1,1.4417604E-1,7.591241E-1,3.9164066E-1,4.0665558E-1,-1.1523701E-2,1.20996265E-2,-4.7872286E-2,-5.3929663E-3,-1.751071E-2,3.116256E-3,5.4397076E-2,1.5519525E-2],"split_indices":[4,4,3,4,1,4,4,0,0,0,0,0,0,0,0],"split_type":[0,0,0,0,0,0,0,0,0,0,0,0,0,0,0],"sum_hessian":[9.463797E1,9.310276E0,8.532769E1,2.276899E0,7.033377E0,7.393481E1,1.1392885E1,1.1643865E0,1.1125127E0,4.496203E0,2.5371745E0,1.1849984E1,6.208482E1,1.8108093E0,9.582076E0],"tree_param":{"num_deleted":"0","num_feature":"5","num_nodes":"15","size_leaf_vector":"0"}},{"base_weights":[1.419432E-3,-1.4789906E-1,2.2958267E-1,-4.2452648E-1,2.467407E-2,1.5908505E-1,7.6170576E-1,-6.8954006E-2,-7.03806E-1,2.1042857E-1,-2.1060552E-1,2.4453954E-1,-8.901969E-1,8.760068E-1,2.3670478E-1],"categories":[],"categories_nodes":[],"categories_segments":[],"categories_sizes":[],"default_left":[1,1,1,1,1,1,1,0,0,0,0,0,0,0,0],"id":44,"left_children":[1,3,5,7,9,11,13,-1,-1,-1,-1,-1,-1,-1,-1],"loss_changes":[3.2800963E0,2.7888355E0,1.3074014E0,2.177269E0,1.652007E0,3.346199E0,4.4139385E-2,0E0,0E0,0E0,0E0,0E0,0E0,0E0,0E0],"parents":[2147483647,0,0,1,1,2,2,3,3,4,4,5,5,6,6],"right_children":[2,4,6,8,10,12,14,-1,-1,-1,-1,-1,-1,-1,-1],"split_conditions":[5.6558216E-1,3.1562102E-1,7.66307E-1,9.1240875E-2,4.852941E-1,7.4759996E-1,8.07886E-1,-3.4477003E-3,-3.51903E-2,1.0521429E-2,-1.0530276E-2,1.2226977E-2,-4.4509847E-2,4.380034E-2,1.1835239E-2],"split_indices":[4,3,4,1,0,4,4,0,0,0,0,0,0,0,0],"split_type":[0,0,0,0,0,0,0,0,0,0,0,0,0,0,0],"sum_hessian":[9.428141E1,5.719963E1,3.708178E1,2.1413967E1,3.5785664E1,3.389077E1,3.1910098E0,9.968804E0,1.1445163E1,2.0056541E1,1.5729124E1,3.2047718E1,1.8430499E0,2.0714424E0,1.1195674E0],"tree_param":{"num_deleted":"0","num_feature":"5","num_nodes":"15","size_leaf_vector":"0"}},{"base_weights":[1.1851185E-3,-5.2736634E-1,6.325769E-2,1.1605206E-2,-6.8456125E-1,-1.4310816E-2,4.580742E-1,2.3528475E-1,-2.2369565E-1,-9.437036E-1,-1.0008331E-1,-9.0369E-2,3.206856E-1,9.327859E-1,3.270732E-1],"categories":[],"categories_nodes":[],"categories_segments":[],"categories_sizes":[],"default_left":[1,1,1,1,1,1,1,0,0,0,0,0,0,0,0],"id":45,"left_children":[1,3,5,7,9,11,13,-1,-1,-1,-1,-1,-1,-1,-1],"loss_changes":[3.1477315E0,8.622513E-1,2.6354992E0,2.2422208E-1,1.0904882E0,1.8817284E0,5.733807E-1,0E0,0E0,0E0,0E0,0E0,0E0,0E0,0E0],"parents":[2147483647,0,0,1,1,2,2,3,3,4,4,5,5,6,6],"right_children":[2,4,6,8,10,12,14,-1,-1,-1,-1,-1,-1,-1,-1],"split_conditions":[3.0891615E-1,1.7047945E-1,5.9520125E-1,3.8181818E-1,7.591241E-1,5.992037E-1,3.797911E-1,1.1764238E-2,-1.1184783E-2,-4.718518E-2,-5.004165E-3,-4.5184502E-3,1.603428E-2,4.6639297E-2,1.635366E-2],"split_indices":[4,4,2,3,1,3,4,0,0,0,0,0,0,0,0],"split_type":[0,0,0,0,0,0,0,0,0,0,0,0,0,0,0],"sum_hessian":[9.392562E1,9.083461E0,8.4842155E1,2.2601826E0,6.8232784E0,7.171606E1,1.3126101E1,1.1587402E0,1.1014426E0,4.3014965E0,2.5217817E0,5.9041428E1,1.2674632E1,1.5151533E0,1.1610948E1],"tree_param":{"num_deleted":"0","num_feature":"5","num_nodes":"15","size_leaf_vector":"0"}},{"base_weights":[1.3522955E-3,-6.341443E-2,4.9071264E-1,-2.7405798E-1,7.4951924E-2,7.882556E-1,1.03475906E-1,-5.988027E-1,-1.371512E-1,1.1455521E-1,-7.600502E-1,2.6479384E-1,9.866956E-1,-8.538059E-1,7.4592245E-1],"categories":[],"categories_nodes":[],"categories_segments":[],"categories_sizes":[],"default_left":[1,1,1,1,1,1,1,0,0,0,0,0,0,0,0],"id":46,"left_children":[1,3,5,7,9,11,13,-1,-1,-1,-1,-1,-1,-1,-1],"loss_changes":[3.029176E0,2.4811184E0,1.2054989E0,1.4154735E0,1.7979863E0,3.7919855E-1,4.3298445E0,0E0,0E0,0E0,0E0,0E0,0E0,0E0,0E0],"parents":[2147483647,0,0,1,1,2,2,3,3,4,4,5,5,6,6],"right_children":[2,4,6,8,10,12,14,-1,-1,-1,-1,-1,-1,-1,-1],"split_conditions":[7.0829904E-1,3.8181818E-1,7.4759996E-1,3.800168E-1,6.9287443E-1,7.2079694E-1,7.66307E-1,-2.9940134E-2,-6.85756E-3,5.7277605E-3,-3.800251E-2,1.3239692E-2,4.933478E-2,-4.2690296E-2,3.7296124E-2],"split_indices":[4,3,4,4,4,4,4,0,0,0,0,0,0,0,0],"split_type":[0,0,0,0,0,0,0,0,0,0,0,0,0,0,0],"sum_hessian":[9.3593056E1,8.342252E1,1.0170537E1,3.26844E1,5.073812E1,5.16573E0,5.0048075E0,8.692315E0,2.3992083E1,4.9264374E1,1.4737493E0,2.0616674E0,3.1040623E0,1.8777951E0,3.1270125E0],"tree_param":{"num_deleted":"0","num_feature":"5","num_nodes":"15","size_leaf_vector":"0"}},{"base_weights":[1.1854618E-3,-5.086842E-1,6.0021456E-2,1.99642E-2,-6.671694E-1,-8.218167E-3,4.732158E-1,2.463363E-1,-2.2115691E-1,-9.084026E-1,-6.4345285E-2,-4.0072758E-2,6.495668E-1,1.0487329E0,2.7424604E-1],"categories":[],"categories_nodes":[],"categories_segments":[],"categories_sizes":[],"default_left":[1,1,1,1,1,1,1,0,0,0,0,0,0,0,0],"id":47,"left_children":[1,3,5,7,9,11,13,-1,-1,-1,-1,-1,-1,-1,-1],"loss_changes":[2.8593125E0,8.395119E-1,2.412853E0,2.3162177E-1,1.049037E0,1.5830563E0,1.1010504E0,0E0,0E0,0E0,0E0,0E0,0E0,0E0,0E0],"parents":[2147483647,0,0,1,1,2,2,3,3,4,4,5,5,6,6],"right_children":[2,4,6,8,10,12,14,-1,-1,-1,-1,-1,-1,-1,-1],"split_conditions":[3.0891615E-1,1.7047945E-1,6.7857146E-1,3.8181818E-1,4.9014777E-1,7.66307E-1,4.0665558E-1,1.2316815E-2,-1.1057845E-2,-4.5420133E-2,-3.2172643E-3,-2.0036378E-3,3.2478344E-2,5.2436646E-2,1.3712302E-2],"split_indices":[4,4,3,3,2,4,4,0,0,0,0,0,0,0,0],"split_type":[0,0,0,0,0,0,0,0,0,0,0,0,0,0,0],"sum_hessian":[9.32968E1,8.861107E0,8.443569E1,2.2453785E0,6.6157284E0,7.3308754E1,1.1126934E1,1.1469535E0,1.098425E0,4.362905E0,2.2528234E0,7.081831E1,2.490443E0,1.7613726E0,9.3655615E0],"tree_param":{"num_deleted":"0","num_feature":"5","num_nodes":"15","size_leaf_vector":"0"}},{"base_weights":[1.6349581E-3,-1.3601443E-1,2.1125077E-1,-3.85772E-1,1.6662503E-2,1.4664882E-1,7.1579075E-1,-3.760686E-2,-6.662248E-1,1.9359568E-1,-2.065938E-1,2.2795448E-1,-8.1694835E-1,8.361059E-1,2.0070978E-1],"categories":[],"categories_nodes":[],"categories_segments":[],"categories_sizes":[],"default_left":[1,1,1,1,1,1,1,0,0,0,0,0,0,0,0],"id":48,"left_children":[1,3,5,7,9,11,13,-1,-1,-1,-1,-1,-1,-1,-1],"loss_changes":[2.7412174E0,2.1934578E0,1.1223679E0,2.1036305E0,1.4839061E0,2.900016E0,8.109403E-2,0E0,0E0,0E0,0E0,0E0,0E0,0E0,0E0],"parents":[2147483647,0,0,1,1,2,2,3,3,4,4,5,5,6,6],"right_children":[2,4,6,8,10,12,14,-1,-1,-1,-1,-1,-1,-1,-1],"split_conditions":[5.6558216E-1,3.1562102E-1,7.66307E-1,9.1240875E-2,4.852941E-1,7.4759996E-1,8.07886E-1,-1.8803431E-3,-3.331124E-2,9.679784E-3,-1.032969E-2,1.1397724E-2,-4.0847417E-2,4.1805293E-2,1.0035489E-2],"split_indices":[4,3,4,1,0,4,4,0,0,0,0,0,0,0,0],"split_type":[0,0,0,0,0,0,0,0,0,0,0,0,0,0,0],"sum_hessian":[9.300888E1,5.635386E1,3.6655025E1,2.08005E1,3.5553356E1,3.3638557E1,3.0164654E0,9.785942E0,1.101456E1,1.9908499E1,1.5644858E1,3.1725115E1,1.9134434E0,1.9400485E0,1.0764171E0],"tree_param":{"num_deleted":"0","num_feature":"5","num_nodes":"15","size_leaf_vector":"0"}},{"base_weights":[1.4082164E-3,-5.936205E-2,4.6601114E-1,-1.04059964E-1,5.228962E-1,7.653947E-1,8.165007E-2,-5.1322275E-1,-3.6287908E-2,7.2560996E-1,-6.0080156E-2,2.5029138E-1,9.651635E-1,-7.801858E-1,7.023861E-1],"categories":[],"categories_nodes":[],"categories_segments":[],"categories_sizes":[],"default_left":[1,1,1,1,1,1,1,0,0,0,0,0,0,0,0],"id":49,"left_children":[1,3,5,7,9,11,13,-1,-1,-1,-1,-1,-1,-1,-1],"loss_changes":[2.6724994E0,2.233467E0,1.1973631E0,2.1607108E0,7.686322E-1,3.794577E-1,3.711449E0,0E0,0E0,0E0,0E0,0E0,0E0,0E0,0E0],"parents":[2147483647,0,0,1,1,2,2,3,3,4,4,5,5,6,6],"right_children":[2,4,6,8,10,12,14,-1,-1,-1,-1,-1,-1,-1,-1],"split_conditions":[7.0829904E-1,8.452381E-1,7.4759996E-1,3.2347423E-1,6.477056E-1,7.2079694E-1,7.66307E-1,-2.5661139E-2,-1.8143954E-3,3.6280498E-2,-3.0040077E-3,1.2514569E-2,4.8258178E-2,-3.900929E-2,3.5119306E-2],"split_indices":[4,2,4,4,4,4,4,0,0,0,0,0,0,0,0],"split_type":[0,0,0,0,0,0,0,0,0,0,0,0,0,0,0],"sum_hessian":[9.267542E1,8.272693E1,9.948488E0,7.759177E1,5.1351647E0,5.035181E0,4.9133077E0,1.0091741E1,6.750002E1,3.6287158E0,1.5064492E0,2.0366335E0,2.9985476E0,1.9495966E0,2.963711E0],"tree_param":{"num_deleted":"0","num_feature":"5","num_nodes":"15","size_leaf_vector":"0"}},{"base_weights":[2.044335E-3,-5.8970973E-2,4.3560374E-1,-1.02529265E-1,5.0717753E-1,6.835363E-1,7.753011E-2,-4.971537E-1,-3.7280243E-2,7.067461E-1,-5.8206704E-2,2.337732E-1,9.486488E-1,-7.4558955E-1,6.866601E-1],"categories":[],"categories_nodes":[],"categories_segments":[],"categories_sizes":[],"default_left":[1,1,1,1,1,1,1,0,0,0,0,0,0,0,0],"id":50,"left_children":[1,3,5,7,9,11,13,-1,-1,-1,-1,-1,-1,-1,-1],"loss_changes":[2.4949226E0,2.091589E0,9.79913E-1,1.9803491E0,7.2680616E-1,5.82695E-1,3.464129E0,0E0,0E0,0E0,0E0,0E0,0E0,0E0,0E0],"parents":[2147483647,0,0,1,1,2,2,3,3,4,4,5,5,6,6],"right_children":[2,4,6,8,10,12,14,-1,-1,-1,-1,-1,-1,-1,-1],"split_conditions":[7.0384645E-1,8.452381E-1,7.4759996E-1,3.2347423E-1,6.477056E-1,7.2079694E-1,7.66307E-1,-2.4857685E-2,-1.8640122E-3,3.5337307E-2,-2.9103353E-3,1.168866E-2,4.743244E-2,-3.727948E-2,3.4333006E-2],"split_indices":[4,2,4,4,4,4,4,0,0,0,0,0,0,0,0],"split_type":[0,0,0,0,0,0,0,0,0,0,0,0,0,0,0],"sum_hessian":[9.234153E1,8.170682E1,1.0634709E1,7.662997E1,5.076851E0,5.7467175E0,4.8879924E0,9.933441E0,6.6696526E1,3.5675528E0,1.5092981E0,2.829041E0,2.9176764E0,1.983567E0,2.9044251E0],"tree_param":{"num_deleted":"0","num_feature":"5","num_nodes":"15","size_leaf_vector":"0"}},{"base_weights":[2.6435624E-3,-5.6105345E-2,4.233515E-1,-2.48867E-1,6.699451E-2,6.677904E-1,7.3749304E-2,1.9992124E-2,-4.7596842E-1,1.0911581E-1,-8.538417E-1,2.2606172E-1,9.327213E-1,-7.1298397E-1,6.7133254E-1],"categories":[],"categories_nodes":[],"categories_segments":[],"categories_sizes":[],"default_left":[1,1,1,1,1,1,1,0,0,0,0,0,0,0,0],"id":51,"left_children":[1,3,5,7,9,11,13,-1,-1,-1,-1,-1,-1,-1,-1],"loss_changes":[2.3226464E0,1.9742602E0,9.346931E-1,1.9855928E0,2.0764973E0,5.6761456E-1,3.2345893E0,0E0,0E0,0E0,0E0,0E0,0E0,0E0,0E0],"parents":[2147483647,0,0,1,1,2,2,3,3,4,4,5,5,6,6],"right_children":[2,4,6,8,10,12,14,-1,-1,-1,-1,-1,-1,-1,-1],"split_conditions":[7.0384645E-1,3.8181818E-1,7.4759996E-1,4.0145986E-2,6.9287443E-1,7.2079694E-1,7.66307E-1,9.996062E-4,-2.3798421E-2,5.4557906E-3,-4.2692088E-2,1.1303086E-2,4.6636067E-2,-3.56492E-2,3.3566628E-2],"split_indices":[4,3,4,1,4,4,4,0,0,0,0,0,0,0,0],"split_type":[0,0,0,0,0,0,0,0,0,0,0,0,0,0,0],"sum_hessian":[9.201188E1,8.149791E1,1.051397E1,3.136379E1,5.013412E1,5.6519976E0,4.8619733E0,1.477914E1,1.658465E1,4.8784122E1,1.3500011E0,2.8137755E0,2.8382223E0,2.0154586E0,2.8465145E0],"tree_param":{"num_deleted":"0","num_feature":"5","num_nodes":"15","size_leaf_vector":"0"}},{"base_weights":[2.4995217E-3,-4.632112E-1,5.411833E-2,6.7328185E-2,-6.3181E-1,-9.58908E-3,4.4418922E-1,2.942005E-1,-1.9509712E-1,-9.0844274E-1,-6.2433213E-2,-1.0395674E-1,2.0509306E-1,1.0233837E0,2.4584423E-1],"categories":[],"categories_nodes":[],"categories_segments":[],"categories_sizes":[],"default_left":[1,1,1,1,1,1,1,0,0,0,0,0,0,0,0],"id":52,"left_children":[1,3,5,7,9,11,13,-1,-1,-1,-1,-1,-1,-1,-1],"loss_changes":[2.2552826E0,8.799052E-1,2.1019244E0,2.4560833E-1,1.0773773E0,1.5111661E0,1.1122625E0,0E0,0E0,0E0,0E0,0E0,0E0,0E0,0E0],"parents":[2147483647,0,0,1,1,2,2,3,3,4,4,5,5,6,6],"right_children":[2,4,6,8,10,12,14,-1,-1,-1,-1,-1,-1,-1,-1],"split_conditions":[3.0891615E-1,1.7047945E-1,6.7857146E-1,3.8181818E-1,7.591241E-1,2.8431374E-1,4.0665558E-1,1.4710026E-2,-9.754856E-3,-4.5422137E-2,-3.1216608E-3,-5.197837E-3,1.0254653E-2,5.1169187E-2,1.2292212E-2],"split_indices":[4,4,3,3,1,2,4,0,0,0,0,0,0,0,0],"split_type":[0,0,0,0,0,0,0,0,0,0,0,0,0,0,0],"sum_hessian":[9.177317E1,8.361459E0,8.341171E1,2.161236E0,6.2002225E0,7.253974E1,1.0871966E1,1.0941967E0,1.0670393E0,3.7720578E0,2.4281645E0,5.0748173E1,2.179157E1,1.7122747E0,9.159692E0],"tree_param":{"num_deleted":"0","num_feature":"5","num_nodes":"15","size_leaf_vector":"0"}},{"base_weights":[2.6317737E-3,-5.1725604E-2,4.28231E-1,-9.2308074E-2,4.861175E-1,7.178476E-1,6.876285E-2,-4.7191754E-1,-3.1886656E-2,6.826315E-1,-5.734186E-2,2.2868691E-1,9.1729695E-1,-6.8599766E-1,6.564443E-1],"categories":[],"categories_nodes":[],"categories_segments":[],"categories_sizes":[],"default_left":[1,1,1,1,1,1,1,0,0,0,0,0,0,0,0],"id":53,"left_children":[1,3,5,7,9,11,13,-1,-1,-1,-1,-1,-1,-1,-1],"loss_changes":[2.162407E0,1.8549507E0,1.052663E0,1.7728679E0,6.7756295E-1,3.5183024E-1,3.035851E0,0E0,0E0,0E0,0E0,0E0,0E0,0E0,0E0],"parents":[2147483647,0,0,1,1,2,2,3,3,4,4,5,5,6,6],"right_children":[2,4,6,8,10,12,14,-1,-1,-1,-1,-1,-1,-1,-1],"split_conditions":[7.0829904E-1,8.452381E-1,7.4759996E-1,3.2347423E-1,6.477056E-1,7.2079694E-1,7.66307E-1,-2.3595877E-2,-1.5943329E-3,3.4131575E-2,-2.867093E-3,1.14343455E-2,4.5864847E-2,-3.4299884E-2,3.2822218E-2],"split_indices":[4,2,4,4,4,4,4,0,0,0,0,0,0,0,0],"split_type":[0,0,0,0,0,0,0,0,0,0,0,0,0,0,0],"sum_hessian":[9.151379E1,8.192838E1,9.5854E0,7.695052E1,4.9778595E0,4.756338E0,4.829062E0,9.631061E0,6.7319466E1,3.4678173E0,1.5100423E0,1.9993676E0,2.7569704E0,2.040784E0,2.7882779E0],"tree_param":{"num_deleted":"0","num_feature":"5","num_nodes":"15","size_leaf_vector":"0"}},{"base_weights":[3.2071045E-3,-1.1644436E-1,1.8551046E-1,1.2230427E-1,-2.5713137E-1,4.125904E-1,6.2487878E-2,-2.2071718E-1,2.7274302E-1,-5.3088677E-1,6.613404E-2,1.3080922E-1,9.786405E-1,-1.9790328E-1,4.002523E-1],"categories":[],"categories_nodes":[],"categories_segments":[],"categories_sizes":[],"default_left":[1,1,1,1,1,1,1,0,0,0,0,0,0,0,0],"id":54,"left_children":[1,3,5,7,9,11,13,-1,-1,-1,-1,-1,-1,-1,-1],"loss_changes":[2.0328317E0,1.9218907E0,1.0056692E0,1.1720445E0,3.1975932E0,1.9129019E0,2.2891045E0,0E0,0E0,0E0,0E0,0E0,0E0,0E0,0E0],"parents":[2147483647,0,0,1,1,2,2,3,3,4,4,5,5,6,6],"right_children":[2,4,6,8,10,12,14,-1,-1,-1,-1,-1,-1,-1,-1],"split_conditions":[5.6558216E-1,1.6423357E-1,6.2539345E-1,3.7968212E-1,3.809524E-1,2.0855615E-1,7.0384645E-1,-1.1035859E-2,1.3637151E-2,-2.6544338E-2,3.3067022E-3,6.540461E-3,4.8932027E-2,-9.895164E-3,2.0012615E-2],"split_indices":[4,1,4,4,2,2,4,0,0,0,0,0,0,0,0],"split_type":[0,0,0,0,0,0,0,0,0,0,0,0,0,0,0],"sum_hessian":[9.120386E1,5.5281876E1,3.5921986E1,2.0545843E1,3.4736034E1,1.1795537E1,2.4126448E1,6.121289E0,1.4424554E1,1.8460556E1,1.6275476E1,8.69716E0,3.0983772E0,1.385746E1,1.0268988E1],"tree_param":{"num_deleted":"0","num_feature":"5","num_nodes":"15","size_leaf_vector":"0"}},{"base_weights":[3.554874E-3,-3.6393404E-2,5.3285736E-1,-4.4887722E-1,1.9850802E-2,6.594584E-1,1.8488333E-1,1.7729425E-1,-6.815037E-1,8.666829E-1,-4.683719E-3],"categories":[],"categories_nodes":[],"categories_segments":[],"categories_sizes":[],"default_left":[1,1,1,1,1,0,0,0,0,0,0],"id":55,"left_children":[1,3,5,7,9,-1,-1,-1,-1,-1,-1],"loss_changes":[1.9608772E0,2.0113194E0,1.6475749E-1,1.6356065E0,1.6020355E0,0E0,0E0,0E0,0E0,0E0,0E0],"parents":[2147483647,0,0,1,1,2,2,3,3,4,4],"right_children":[2,4,6,8,10,-1,-1,-1,-1,-1,-1],"split_conditions":[8.452381E-1,3.2347423E-1,6.477056E-1,1.0218978E-1,3.415429E-1,3.297292E-2,9.244166E-3,8.864713E-3,-3.4075186E-2,4.3334145E-2,-2.3418595E-4],"split_indices":[2,4,4,1,4,0,0,0,0,0,0],"split_type":[0,0,0,0,0,0,0,0,0,0,0],"sum_hessian":[9.081887E1,8.531137E1,5.5074997E0,9.399134E0,7.591224E1,3.3819363E0,2.1255634E0,2.6104157E0,6.788718E0,1.1709447E0,7.4741295E1],"tree_param":{"num_deleted":"0","num_feature":"5","num_nodes":"11","size_leaf_vector":"0"}},{"base_weights":[4.019626E-3,-1.4997403E-1,1.3453414E-1,1.8839939E-1,-3.284003E-1,1.2755186E-2,3.6741483E-1,3.0558798E-1,-6.508718E-1,-5.5603737E-1,-7.096418E-2,1.2782237E-1,-6.0259736E-1,6.341535E-1,1.3139875E-1],"categories":[],"categories_nodes":[],"categories_segments":[],"categories_sizes":[],"default_left":[1,1,1,1,1,1,1,0,0,0,0,0,0,0,0],"id":56,"left_children":[1,3,5,7,9,11,13,-1,-1,-1,-1,-1,-1,-1,-1],"loss_changes":[1.8617172E0,2.6281106E0,1.416743E0,1.7047298E0,1.6128101E0,2.480705E0,9.978552E-1,0E0,0E0,0E0,0E0,0E0,0E0,0E0,0E0],"parents":[2147483647,0,0,1,1,2,2,3,3,4,4,5,5,6,6],"right_children":[2,4,6,8,10,12,14,-1,-1,-1,-1,-1,-1,-1,-1],"split_conditions":[5.0078905E-1,1.350365E-1,2.8431374E-1,4.706713E-1,2.8431374E-1,1.0294118E-1,6.2539345E-1,1.5279399E-2,-3.2543592E-2,-2.780187E-2,-3.548209E-3,6.3911187E-3,-3.0129869E-2,3.1707674E-2,6.569938E-3],"split_indices":[4,1,2,4,2,0,4,0,0,0,0,0,0,0,0],"split_type":[0,0,0,0,0,0,0,0,0,0,0,0,0,0,0],"sum_hessian":[9.06262E1,4.150522E1,4.912098E1,1.4310473E1,2.7194746E1,3.294698E1,1.6174E1,1.3115085E1,1.1953886E0,1.3817108E1,1.3377638E1,2.8424118E1,4.5228596E0,6.8009043E0,9.3730955E0],"tree_param":{"num_deleted":"0","num_feature":"5","num_nodes":"15","size_leaf_vector":"0"}},{"base_weights":[3.4461569E-3,-4.684725E-2,4.0141052E-1,-2.1696621E-1,6.343337E-2,6.9276875E-1,4.6741176E-2,-1.2376776E-1,-6.250433E-1,1.01717524E-1,-7.111134E-1,2.0788135E-1,8.968347E-1,-6.758186E-1,6.3101566E-1],"categories":[],"categories_nodes":[],"categories_segments":[],"categories_sizes":[],"default_left":[1,1,1,1,1,1,1,0,0,0,0,0,0,0,0],"id":57,"left_children":[1,3,5,7,9,11,13,-1,-1,-1,-1,-1,-1,-1,-1],"loss_changes":[1.8467596E0,1.5517353E0,1.0372926E0,1.157466E0,1.5700965E0,3.6872697E-1,2.8500829E0,0E0,0E0,0E0,0E0,0E0,0E0,0E0,0E0],"parents":[2147483647,0,0,1,1,2,2,3,3,4,4,5,5,6,6],"right_children":[2,4,6,8,10,12,14,-1,-1,-1,-1,-1,-1,-1,-1],"split_conditions":[7.0829904E-1,3.8181818E-1,7.4759996E-1,1.0294118E-1,6.9287443E-1,7.2079694E-1,7.66307E-1,-6.1883884E-3,-3.1252164E-2,5.085876E-3,-3.5555672E-2,1.03940675E-2,4.4841733E-2,-3.379093E-2,3.1550784E-2],"split_indices":[4,3,4,0,4,4,4,0,0,0,0,0,0,0,0],"split_type":[0,0,0,0,0,0,0,0,0,0,0,0,0,0,0],"sum_hessian":[9.03293E1,8.0977875E1,9.35143E0,3.1467966E1,4.9509907E1,4.6105866E0,4.740844E0,2.6678343E1,4.789623E0,4.800576E1,1.5041453E0,1.9635738E0,2.6470127E0,2.0495405E0,2.6913033E0],"tree_param":{"num_deleted":"0","num_feature":"5","num_nodes":"15","size_leaf_vector":"0"}},{"base_weights":[3.14478E-3,-3.4890193E-2,5.1244456E-1,-4.2991287E-1,1.8148946E-2,8.016164E-1,2.9555473E-1,1.615632E-1,-6.580572E-1,-1.2939408E-2,6.698063E-1,-1.121326E-2,3.9337164E-1],"categories":[],"categories_nodes":[],"categories_segments":[],"categories_sizes":[],"default_left":[1,1,1,1,1,0,1,0,0,0,0,0,0],"id":58,"left_children":[1,3,5,7,9,-1,11,-1,-1,-1,-1,-1,-1],"loss_changes":[1.7831904E0,1.8040754E0,1.6425872E-1,1.4812752E0,1.5593867E0,0E0,1.6162145E-1,0E0,0E0,0E0,0E0,0E0,0E0],"parents":[2147483647,0,0,1,1,2,2,3,3,4,4,6,6],"right_children":[2,4,6,8,10,-1,12,-1,-1,-1,-1,-1,-1],"split_conditions":[8.452381E-1,3.2347423E-1,3.0882353E-1,1.0218978E-1,8.09492E-1,4.008082E-2,5.249246E-1,8.078161E-3,-3.2902863E-2,-6.469704E-4,3.3490315E-2,-5.60663E-4,1.9668583E-2],"split_indices":[2,4,0,1,3,0,4,0,0,0,0,0,0],"split_type":[0,0,0,0,0,0,0,0,0,0,0,0,0],"sum_hessian":[9.013069E1,8.473416E1,5.3965306E0,9.189253E0,7.554491E1,1.1574203E0,4.2391105E0,2.6390963E0,6.550156E0,7.3040535E1,2.5043714E0,1.2389495E0,3.0001607E0],"tree_param":{"num_deleted":"0","num_feature":"5","num_nodes":"13","size_leaf_vector":"0"}},{"base_weights":[3.7248996E-3,-4.65874E-2,3.7279356E-1,-8.24992E-2,4.358631E-1,1.5981498E-1,8.334658E-1,-4.1638082E-1,-3.1184573E-2,6.279443E-1,-6.780706E-2,4.993404E-1,-2.6680008E-1],"categories":[],"categories_nodes":[],"categories_segments":[],"categories_sizes":[],"default_left":[1,1,1,1,1,1,0,0,0,0,0,0,0],"id":59,"left_children":[1,3,5,7,9,11,-1,-1,-1,-1,-1,-1,-1],"loss_changes":[1.7052745E0,1.4373348E0,9.476415E-1,1.2912083E0,6.001017E-1,1.4036224E0,0E0,0E0,0E0,0E0,0E0,0E0,0E0],"parents":[2147483647,0,0,1,1,2,2,3,3,4,4,5,5],"right_children":[2,4,6,8,10,12,-1,-1,-1,-1,-1,-1,-1],"split_conditions":[7.0384645E-1,8.452381E-1,6.396104E-1,3.2347423E-1,6.477056E-1,7.4615824E-1,4.167329E-2,-2.0819042E-2,-1.5592286E-3,3.1397216E-2,-3.3903532E-3,2.496702E-2,-1.3340004E-2],"split_indices":[4,2,3,4,4,4,0,0,0,0,0,0,0],"split_type":[0,0,0,0,0,0,0,0,0,0,0,0,0],"sum_hessian":[8.990069E1,7.988442E1,1.001626E1,7.512165E1,4.7627726E0,7.7706437E0,2.245617E0,9.059728E0,6.606192E1,3.2692604E0,1.4935123E0,4.2320547E0,3.5385888E0],"tree_param":{"num_deleted":"0","num_feature":"5","num_nodes":"13","size_leaf_vector":"0"}},{"base_weights":[4.217712E-3,-4.2489357E-2,3.792679E-1,-2.0341456E-1,6.172186E-2,6.63614E-1,4.117373E-2,-1.1380699E-1,-6.003864E-1,1.3969016E-1,-3.1838956E-1,1.8461163E-1,8.728786E-1,-6.5373176E-1,6.166487E-1],"categories":[],"categories_nodes":[],"categories_segments":[],"categories_sizes":[],"default_left":[1,1,1,1,1,1,1,0,0,0,0,0,0,0,0],"id":60,"left_children":[1,3,5,7,9,11,13,-1,-1,-1,-1,-1,-1,-1,-1],"loss_changes":[1.6038684E0,1.379324E0,9.473368E-1,1.0794306E0,1.5332341E0,3.8422894E-1,2.6816003E0,0E0,0E0,0E0,0E0,0E0,0E0,0E0,0E0],"parents":[2147483647,0,0,1,1,2,2,3,3,4,4,5,5,6,6],"right_children":[2,4,6,8,10,12,14,-1,-1,-1,-1,-1,-1,-1,-1],"split_conditions":[7.0829904E-1,3.8181818E-1,7.4759996E-1,1.0294118E-1,6.3801825E-1,7.2079694E-1,7.66307E-1,-5.6903497E-3,-3.0019319E-2,6.984508E-3,-1.5919479E-2,9.230582E-3,4.3643933E-2,-3.2686587E-2,3.0832434E-2],"split_indices":[4,3,4,0,4,4,4,0,0,0,0,0,0,0,0],"split_type":[0,0,0,0,0,0,0,0,0,0,0,0,0,0,0],"sum_hessian":[8.963816E1,8.049979E1,9.138372E0,3.1266085E1,4.9233704E1,4.4407644E0,4.6976085E0,2.6557913E1,4.708171E0,4.1378635E1,7.8550673E0,1.9224678E0,2.5182967E0,2.0663881E0,2.63122E0],"tree_param":{"num_deleted":"0","num_feature":"5","num_nodes":"15","size_leaf_vector":"0"}},{"base_weights":[4.110288E-3,-2.5015615E-2,6.011064E-1,-4.026757E-1,2.320107E-2,7.771556E-1,2.886645E-1,1.7457975E-1,-6.3256466E-1,8.4988874E-1,-3.492167E-4],"categories":[],"categories_nodes":[],"categories_segments":[],"categories_sizes":[],"default_left":[1,1,1,1,1,0,0,0,0,0,0],"id":61,"left_children":[1,3,5,7,9,-1,-1,-1,-1,-1,-1],"loss_changes":[1.5885173E0,1.5979879E0,9.4047785E-3,1.4284377E0,1.5249074E0,0E0,0E0,0E0,0E0,0E0,0E0],"parents":[2147483647,0,0,1,1,2,2,3,3,4,4],"right_children":[2,4,6,8,10,-1,-1,-1,-1,-1,-1],"split_conditions":[8.6607146E-1,3.2347423E-1,3.382353E-1,1.0218978E-1,3.415429E-1,3.885778E-2,1.4433225E-2,8.728988E-3,-3.1628232E-2,4.249444E-2,-1.7460834E-5],"split_indices":[2,4,0,1,4,0,0,0,0,0,0],"split_type":[0,0,0,0,0,0,0,0,0,0,0],"sum_hessian":[8.949205E1,8.624259E1,3.2494564E0,8.931864E0,7.731073E1,1.1270477E0,2.1224086E0,2.612477E0,6.3193865E0,1.1694978E0,7.6141235E1],"tree_param":{"num_deleted":"0","num_feature":"5","num_nodes":"11","size_leaf_vector":"0"}},{"base_weights":[4.697003E-3,-1.0092028E-1,1.6515778E-1,1.1566663E-1,-2.317842E-1,3.9150342E-1,4.3293685E-2,-1.446213E-1,2.9165703E-1,-4.7719693E-1,5.118367E-2,1.2839812E-1,9.4544137E-1,-3.6263373E-1,2.296934E-1],"categories":[],"categories_nodes":[],"categories_segments":[],"categories_sizes":[],"default_left":[1,1,1,1,1,1,1,0,0,0,0,0,0,0,0],"id":62,"left_children":[1,3,5,7,9,11,13,-1,-1,-1,-1,-1,-1,-1,-1],"loss_changes":[1.5477616E0,1.5886252E0,9.8268443E-1,1.0234466E0,2.4328847E0,1.7089827E0,1.950819E0,0E0,0E0,0E0,0E0,0E0,0E0,0E0,0E0],"parents":[2147483647,0,0,1,1,2,2,3,3,4,4,5,5,6,6],"right_children":[2,4,6,8,10,12,14,-1,-1,-1,-1,-1,-1,-1,-1],"split_conditions":[5.6558216E-1,1.6423357E-1,6.2539345E-1,4.020197E-1,3.809524E-1,2.0855615E-1,6.6184163E-1,-7.231065E-3,1.4582852E-2,-2.3859847E-2,2.5591836E-3,6.419906E-3,4.7272068E-2,-1.8131686E-2,1.148467E-2],"split_indices":[4,1,4,4,2,2,4,0,0,0,0,0,0,0,0],"split_type":[0,0,0,0,0,0,0,0,0,0,0,0,0,0,0],"sum_hessian":[8.9343704E1,5.41033E1,3.5240406E1,2.0421211E1,3.3682087E1,1.155884E1,2.3681566E1,8.309619E0,1.2111593E1,1.7670443E1,1.6011644E1,8.671776E0,2.887064E0,7.1548357E0,1.6526731E1],"tree_param":{"num_deleted":"0","num_feature":"5","num_nodes":"15","size_leaf_vector":"0"}},{"base_weights":[4.852397E-3,-2.3383562E-2,5.8692133E-1,-3.8320887E-1,2.1817848E-2,7.6225024E-1,2.7849808E-1,1.7338672E-1,-6.117374E-1,8.3003896E-1,-1.297744E-3],"categories":[],"categories_nodes":[],"categories_segments":[],"categories_sizes":[],"default_left":[1,1,1,1,1,0,0,0,0,0,0],"id":63,"left_children":[1,3,5,7,9,-1,-1,-1,-1,-1,-1],"loss_changes":[1.4930948E0,1.4202782E0,1.4980435E-2,1.345212E0,1.4595703E0,0E0,0E0,0E0,0E0,0E0,0E0],"parents":[2147483647,0,0,1,1,2,2,3,3,4,4],"right_children":[2,4,6,8,10,-1,-1,-1,-1,-1,-1],"split_conditions":[8.6607146E-1,3.2347423E-1,3.382353E-1,1.0218978E-1,3.415429E-1,3.8112514E-2,1.3924904E-2,8.669336E-3,-3.0586869E-2,4.150195E-2,-6.48872E-5],"split_indices":[2,4,0,1,4,0,0,0,0,0,0],"split_type":[0,0,0,0,0,0,0,0,0,0,0],"sum_hessian":[8.901191E1,8.5809166E1,3.2027454E0,8.741862E0,7.706731E1,1.1038177E0,2.0989277E0,2.614754E0,6.1271086E0,1.1722484E0,7.589506E1],"tree_param":{"num_deleted":"0","num_feature":"5","num_nodes":"11","size_leaf_vector":"0"}},{"base_weights":[5.394302E-3,-2.2041256E-2,5.7506955E-1,-1.5689316E-1,9.357012E-2,7.4931234E-1,2.7060613E-1,1.8056543E-1,-3.478878E-1,4.1032186E-1,2.725656E-2],"categories":[],"categories_nodes":[],"categories_segments":[],"categories_sizes":[],"default_left":[1,1,1,1,1,0,0,0,0,0,0],"id":64,"left_children":[1,3,5,7,9,-1,-1,-1,-1,-1,-1],"loss_changes":[1.4173007E0,1.3664432E0,1.8252134E-2,2.6664276E0,9.8254037E-1,0E0,0E0,0E0,0E0,0E0,0E0],"parents":[2147483647,0,0,1,1,2,2,3,3,4,4],"right_children":[2,4,6,8,10,-1,-1,-1,-1,-1,-1],"split_conditions":[8.6607146E-1,5.0078905E-1,3.382353E-1,1.350365E-1,5.3493285E-1,3.7465617E-2,1.35303065E-2,9.028272E-3,-1.7394392E-2,2.0516094E-2,1.362828E-3],"split_indices":[2,4,0,1,4,0,0,0,0,0,0],"split_type":[0,0,0,0,0,0,0,0,0,0,0],"sum_hessian":[8.887096E1,8.570473E1,3.16623E0,3.9395634E1,4.630909E1,1.0844905E0,2.0817394E0,1.4258186E1,2.5137447E1,7.1186624E0,3.919043E1],"tree_param":{"num_deleted":"0","num_feature":"5","num_nodes":"11","size_leaf_vector":"0"}},{"base_weights":[5.8432505E-3,-3.753212E-2,3.5758218E-1,-1.8926972E-1,6.0640857E-2,6.4230216E-1,2.4766212E-2,-4.820441E-1,-8.11889E-2,9.85876E-2,-6.9175965E-1,1.6866565E-1,8.5495436E-1,-6.369548E-1,5.936855E-1],"categories":[],"categories_nodes":[],"categories_segments":[],"categories_sizes":[],"default_left":[1,1,1,1,1,1,1,0,0,0,0,0,0,0,0],"id":65,"left_children":[1,3,5,7,9,11,13,-1,-1,-1,-1,-1,-1,-1,-1],"loss_changes":[1.3818862E0,1.2144277E0,9.2616034E-1,9.723517E-1,1.4897145E0,3.914156E-1,2.49532E0,0E0,0E0,0E0,0E0,0E0,0E0,0E0,0E0],"parents":[2147483647,0,0,1,1,2,2,3,3,4,4,5,5,6,6],"right_children":[2,4,6,8,10,12,14,-1,-1,-1,-1,-1,-1,-1,-1],"split_conditions":[7.0829904E-1,3.8181818E-1,7.4759996E-1,3.800168E-1,6.9287443E-1,7.2079694E-1,7.66307E-1,-2.4102205E-2,-4.059445E-3,4.92938E-3,-3.4587983E-2,8.433282E-3,4.2747717E-2,-3.184774E-2,2.9684275E-2],"split_indices":[4,3,4,4,4,4,4,0,0,0,0,0,0,0,0],"split_type":[0,0,0,0,0,0,0,0,0,0,0,0,0,0,0],"sum_hessian":[8.86954E1,7.975371E1,8.941689E0,3.0965326E1,4.8788383E1,4.3178873E0,4.623801E0,7.416131E0,2.3549194E1,4.7273167E1,1.5152167E0,1.8935564E0,2.4243312E0,2.082277E0,2.541524E0],"tree_param":{"num_deleted":"0","num_feature":"5","num_nodes":"15","size_leaf_vector":"0"}},{"base_weights":[5.4845843E-3,-2.738871E-2,4.5662504E-1,-7.349825E-2,3.11171E-1,5.8004785E-1,1.341627E-1,-4.910515E-2,-8.5688853E-1,5.5850905E-1,-1.6014922E-2],"categories":[],"categories_nodes":[],"categories_segments":[],"categories_sizes":[],"default_left":[1,1,1,1,1,0,0,0,0,0,0],"id":66,"left_children":[1,3,5,7,9,-1,-1,-1,-1,-1,-1],"loss_changes":[1.3393435E0,1.3393936E0,1.6626835E-1,1.3917696E0,8.4247833E-1,0E0,0E0,0E0,0E0,0E0,0E0],"parents":[2147483647,0,0,1,1,2,2,3,3,4,4],"right_children":[2,4,6,8,10,-1,-1,-1,-1,-1,-1],"split_conditions":[8.452381E-1,7.0330435E-1,6.477056E-1,6.907663E-1,7.4759996E-1,2.9002393E-2,6.708135E-3,-2.4552576E-3,-4.2844426E-2,2.7925452E-2,-8.0074614E-4],"split_indices":[2,4,4,4,4,0,0,0,0,0,0],"split_type":[0,0,0,0,0,0,0,0,0,0,0],"sum_hessian":[8.846696E1,8.333395E1,5.133013E0,7.4033936E1,9.300012E0,3.134479E0,1.9985335E0,7.282888E1,1.2050529E0,4.8936334E0,4.406378E0],"tree_param":{"num_deleted":"0","num_feature":"5","num_nodes":"11","size_leaf_vector":"0"}},{"base_weights":[5.4365466E-3,-9.102064E-2,1.5190329E-1,1.09770425E-1,-2.139166E-1,3.6795032E-1,2.4578223E-2,-1.3261797E-1,2.720254E-1,-4.462265E-1,4.993969E-2,1.8058819E-1,8.2414275E-1,-4.1025436E-1,2.0942146E-1],"categories":[],"categories_nodes":[],"categories_segments":[],"categories_sizes":[],"default_left":[1,1,1,1,1,1,1,0,0,0,0,0,0,0,0],"id":67,"left_children":[1,3,5,7,9,11,13,-1,-1,-1,-1,-1,-1,-1,-1],"loss_changes":[1.2758331E0,1.3679544E0,9.7695947E-1,8.7563145E-1,2.1147594E0,9.810945E-1,1.9847413E0,0E0,0E0,0E0,0E0,0E0,0E0,0E0,0E0],"parents":[2147483647,0,0,1,1,2,2,3,3,4,4,5,5,6,6],"right_children":[2,4,6,8,10,12,14,-1,-1,-1,-1,-1,-1,-1,-1],"split_conditions":[5.6558216E-1,1.6423357E-1,6.309167E-1,4.020197E-1,3.809524E-1,6.17521E-1,6.6184163E-1,-6.6308985E-3,1.36012705E-2,-2.2311326E-2,2.4969846E-3,9.02941E-3,4.120714E-2,-2.0512719E-2,1.0471073E-2],"split_indices":[4,1,4,4,2,4,4,0,0,0,0,0,0,0,0],"split_type":[0,0,0,0,0,0,0,0,0,0,0,0,0,0,0],"sum_hessian":[8.8328094E1,5.3484123E1,3.4843967E1,2.0347149E1,3.3136974E1,1.2219645E1,2.2624323E1,8.232097E0,1.2115053E1,1.7254356E1,1.5882618E1,9.651536E0,2.5681088E0,6.384858E0,1.6239466E1],"tree_param":{"num_deleted":"0","num_feature":"5","num_nodes":"15","size_leaf_vector":"0"}},{"base_weights":[5.4848E-3,-2.0367913E-2,5.484066E-1,-3.526063E-1,2.0392263E-2,7.2465014E-1,2.4902484E-1,1.8196516E-1,-5.81518E-1,8.225402E-1,-2.6631574E-3],"categories":[],"categories_nodes":[],"categories_segments":[],"categories_sizes":[],"default_left":[1,1,1,1,1,0,0,0,0,0,0],"id":68,"left_children":[1,3,5,7,9,-1,-1,-1,-1,-1,-1],"loss_changes":[1.2610213E0,1.1713077E0,3.499341E-2,1.2620182E0,1.4357312E0,0E0,0E0,0E0,0E0,0E0,0E0],"parents":[2147483647,0,0,1,1,2,2,3,3,4,4],"right_children":[2,4,6,8,10,-1,-1,-1,-1,-1,-1],"split_conditions":[8.6607146E-1,3.2347423E-1,3.382353E-1,1.0218978E-1,3.415429E-1,3.623251E-2,1.2451242E-2,9.098258E-3,-2.90759E-2,4.112701E-2,-1.3315787E-4],"split_indices":[2,4,0,1,4,0,0,0,0,0,0],"split_type":[0,0,0,0,0,0,0,0,0,0,0],"sum_hessian":[8.804611E1,8.496286E1,3.0832553E0,8.448438E0,7.651442E1,1.0466264E0,2.0366287E0,2.5945468E0,5.853891E0,1.1689087E0,7.534551E1],"tree_param":{"num_deleted":"0","num_feature":"5","num_nodes":"11","size_leaf_vector":"0"}},{"base_weights":[5.9848703E-3,-1.9148562E-2,5.374302E-1,-3.4100398E-1,1.9896872E-2,7.127072E-1,2.419086E-1,1.7471129E-1,-5.666074E-1,-8.552019E-3,6.403641E-1],"categories":[],"categories_nodes":[],"categories_segments":[],"categories_sizes":[],"default_left":[1,1,1,1,1,0,0,0,0,0,0],"id":69,"left_children":[1,3,5,7,9,-1,-1,-1,-1,-1,-1],"loss_changes":[1.1979805E0,1.0858978E0,3.7356973E-2,1.1862781E0,1.373894E0,0E0,0E0,0E0,0E0,0E0,0E0],"parents":[2147483647,0,0,1,1,2,2,3,3,4,4],"right_children":[2,4,6,8,10,-1,-1,-1,-1,-1,-1],"split_conditions":[8.6607146E-1,3.2347423E-1,3.382353E-1,1.0218978E-1,8.09492E-1,3.5635363E-2,1.209543E-2,8.735565E-3,-2.833037E-2,-4.2760093E-4,3.2018207E-2],"split_indices":[2,4,0,1,3,0,0,0,0,0,0],"split_type":[0,0,0,0,0,0,0,0,0,0,0],"sum_hessian":[8.791858E1,8.486887E1,3.049701E0,8.345182E0,7.65237E1,1.0281827E0,2.0215182E0,2.608317E0,5.7368655E0,7.411183E1,2.4118664E0],"tree_param":{"num_deleted":"0","num_feature":"5","num_nodes":"11","size_leaf_vector":"0"}},{"base_weights":[6.3629583E-3,-1.6522283E-2,5.741018E-1,5.963153E-3,-6.229907E-1,7.0763123E-1,1.2938312E-1,-2.722049E-2,8.2969517E-1],"categories":[],"categories_nodes":[],"categories_segments":[],"categories_sizes":[],"default_left":[1,1,1,1,0,0,0,0,0],"id":70,"left_children":[1,3,5,7,-1,-1,-1,-1,-1],"loss_changes":[1.1625655E0,1.1802986E0,1.14308596E-1,2.3237765E0,0E0,0E0,0E0,0E0,0E0],"parents":[2147483647,0,0,1,1,2,2,3,3],"right_children":[2,4,6,8,-1,-1,-1,-1,-1],"split_conditions":[7.66307E-1,7.4759996E-1,8.038323E-1,7.2079694E-1,-3.1149536E-2,3.5381563E-2,6.469156E-3,-1.3610244E-3,4.148476E-2],"split_indices":[4,4,4,4,0,0,0,0,0],"split_type":[0,0,0,0,0,0,0,0,0],"sum_hessian":[8.7747345E1,8.5280624E1,2.466717E0,8.318657E1,2.0940592E0,1.4424303E0,1.0242867E0,8.0894714E1,2.2918496E0],"tree_param":{"num_deleted":"0","num_feature":"5","num_nodes":"9","size_leaf_vector":"0"}},{"base_weights":[6.6497917E-3,-1.7744828E-2,5.2594453E-1,-3.9066903E-2,5.3445363E-1,7.00083E-1,2.3475544E-1,-1.7178306E-2,-5.97149E-1,6.643206E-1,1.263752E-1],"categories":[],"categories_nodes":[],"categories_segments":[],"categories_sizes":[],"default_left":[1,1,1,1,1,0,0,0,0,0,0],"id":71,"left_children":[1,3,5,7,9,-1,-1,-1,-1,-1,-1],"loss_changes":[1.1325642E0,1.0293928E0,3.903842E-2,1.0085658E0,8.842033E-2,0E0,0E0,0E0,0E0,0E0,0E0],"parents":[2147483647,0,0,1,1,2,2,3,3,4,4],"right_children":[2,4,6,8,10,-1,-1,-1,-1,-1,-1],"split_conditions":[8.6607146E-1,7.6692E-1,3.382353E-1,7.4759996E-1,8.038323E-1,3.500415E-2,1.1737772E-2,-8.5891533E-4,-2.9857451E-2,3.321603E-2,6.31876E-3],"split_indices":[2,4,0,4,4,0,0,0,0,0,0],"split_type":[0,0,0,0,0,0,0,0,0,0,0],"sum_hessian":[8.766684E1,8.465584E1,3.0110013E0,8.240325E1,2.2525902E0,1.0054783E0,2.005523E0,8.028516E1,2.1180918E0,1.2324508E0,1.0201393E0],"tree_param":{"num_deleted":"0","num_feature":"5","num_nodes":"11","size_leaf_vector":"0"}},{"base_weights":[6.960623E-3,-8.275714E-2,1.4297599E-1,-2.8532045E-2,-5.314633E-1,4.3556106E-1,4.8509955E-2,-7.728913E-2,6.2706006E-1,-8.886455E-1,-2.0168237E-2,9.110265E-1,3.679886E-2,-2.616059E-1,2.6660785E-1],"categories":[],"categories_nodes":[],"categories_segments":[],"categories_sizes":[],"default_left":[1,1,1,1,1,1,1,0,0,0,0,0,0,0,0],"id":72,"left_children":[1,3,5,7,9,11,13,-1,-1,-1,-1,-1,-1,-1,-1],"loss_changes":[1.0933247E0,1.2995553E0,9.625759E-1,1.6232173E0,1.035673E0,1.589651E0,1.9655445E0,0E0,0E0,0E0,0E0,0E0,0E0,0E0,0E0],"parents":[2147483647,0,0,1,1,2,2,3,3,4,4,5,5,6,6],"right_children":[2,4,6,8,10,12,14,-1,-1,-1,-1,-1,-1,-1,-1],"split_conditions":[5.6558216E-1,5.402651E-1,6.053826E-1,5.3077376E-1,5.477853E-1,1.5328467E-1,1.6423357E-1,-3.8644564E-3,3.1353004E-2,-4.443228E-2,-1.0084119E-3,4.5551326E-2,1.8399431E-3,-1.3080294E-2,1.3330393E-2],"split_indices":[4,4,4,4,4,1,1,0,0,0,0,0,0,0,0],"split_type":[0,0,0,0,0,0,0,0,0,0,0,0,0,0,0],"sum_hessian":[8.7625175E1,5.303443E1,3.4590744E1,4.826527E1,4.769158E0,7.5611587E0,2.7029585E1,4.5745255E1,2.5200155E0,2.3732305E0,2.3959277E0,2.862916E0,4.698243E0,1.1078067E1,1.5951518E1],"tree_param":{"num_deleted":"0","num_feature":"5","num_nodes":"15","size_leaf_vector":"0"}},{"base_weights":[6.974502E-3,-3.564077E-2,2.8786522E-1,-2.7274168E-1,3.6664627E-2,6.183281E-2,8.391653E-1,-5.1018524E-1,2.1955566E-1,5.538603E-1,-3.659323E-2,2.5449723E-1,-7.211426E-1],"categories":[],"categories_nodes":[],"categories_segments":[],"categories_sizes":[],"default_left":[1,1,1,1,1,1,0,0,0,0,0,0,0],"id":73,"left_children":[1,3,5,7,9,11,-1,-1,-1,-1,-1,-1,-1],"loss_changes":[1.0696507E0,1.3426394E0,1.4146054E0,2.2492974E0,2.3106165E0,1.6054566E0,0E0,0E0,0E0,0E0,0E0,0E0,0E0],"parents":[2147483647,0,0,1,1,2,2,3,3,4,4,5,5],"right_children":[2,4,6,8,10,12,-1,-1,-1,-1,-1,-1,-1],"split_conditions":[6.7857146E-1,3.9164066E-1,6.6693056E-1,4.9014777E-1,4.3316483E-1,6.4171886E-1,4.1958265E-2,-2.5509262E-2,1.0977783E-2,2.7693016E-2,-1.8296614E-3,1.27248615E-2,-3.605713E-2],"split_indices":[3,4,4,2,4,4,0,0,0,0,0,0,0],"split_type":[0,0,0,0,0,0,0,0,0,0,0,0,0],"sum_hessian":[8.7502106E1,7.67336E1,1.0768505E1,1.7284124E1,5.9449474E1,8.426008E0,2.3424962E0,1.1635692E1,5.6484323E0,6.5619698E0,5.2887505E1,7.303756E0,1.1222521E0],"tree_param":{"num_deleted":"0","num_feature":"5","num_nodes":"13","size_leaf_vector":"0"}},{"base_weights":[6.9707665E-3,-1.455351E-2,5.520065E-1,6.8626557E-3,-5.835113E-1,6.853476E-1,1.1998914E-1,-2.5038455E-2,8.148798E-1],"categories":[],"categories_nodes":[],"categories_segments":[],"categories_sizes":[],"default_left":[1,1,1,1,0,0,0,0,0],"id":74,"left_children":[1,3,5,7,-1,-1,-1,-1,-1],"loss_changes":[1.0438476E0,1.0508494E0,1.1247623E-1,2.1801035E0,0E0,0E0,0E0,0E0,0E0],"parents":[2147483647,0,0,1,1,2,2,3,3],"right_children":[2,4,6,8,-1,-1,-1,-1,-1],"split_conditions":[7.66307E-1,7.4759996E-1,8.038323E-1,7.2079694E-1,-2.9175565E-2,3.426738E-2,5.999457E-3,-1.2519228E-3,4.0743988E-2],"split_indices":[4,4,4,4,0,0,0,0,0],"split_type":[0,0,0,0,0,0,0,0,0],"sum_hessian":[8.72934E1,8.4913345E1,2.380057E0,8.2785164E1,2.1281817E0,1.3706269E0,1.00943E0,8.057309E1,2.2120724E0],"tree_param":{"num_deleted":"0","num_feature":"5","num_nodes":"9","size_leaf_vector":"0"}},{"base_weights":[7.2258334E-3,-2.1640414E-2,4.118147E-1,-6.1547752E-2,2.7787042E-1,5.4169166E-1,8.822326E-2,-3.7399225E-2,-8.3184993E-1,9.152768E-2,7.514349E-1],"categories":[],"categories_nodes":[],"categories_segments":[],"categories_sizes":[],"default_left":[1,1,1,1,1,0,0,0,0,0,0],"id":75,"left_children":[1,3,5,7,9,-1,-1,-1,-1,-1,-1],"loss_changes":[1.0391735E0,1.012647E0,2.0120704E-1,1.3512948E0,8.1140596E-1,0E0,0E0,0E0,0E0,0E0,0E0],"parents":[2147483647,0,0,1,1,2,2,3,3,4,4],"right_children":[2,4,6,8,10,-1,-1,-1,-1,-1,-1],"split_conditions":[8.452381E-1,7.0330435E-1,6.477056E-1,6.907663E-1,6.396104E-1,2.7084583E-2,4.4111633E-3,-1.8699613E-3,-4.1592497E-2,4.576384E-3,3.7571747E-2],"split_indices":[2,4,4,4,3,0,0,0,0,0,0],"split_type":[0,0,0,0,0,0,0,0,0,0,0],"sum_hessian":[8.721518E1,8.2290504E1,4.9246774E0,7.331623E1,8.974275E0,3.0332503E0,1.8914269E0,7.210435E1,1.2118781E0,7.296465E0,1.6778096E0],"tree_param":{"num_deleted":"0","num_feature":"5","num_nodes":"11","size_leaf_vector":"0"}},{"base_weights":[7.233921E-3,-1.5376374E-2,4.971116E-1,-1.2809716E-1,8.024223E-2,1.6344954E-1,-3.2483965E-1,3.9911476E-1,1.3043685E-2],"categories":[],"categories_nodes":[],"categories_segments":[],"categories_sizes":[],"default_left":[1,1,0,1,1,0,0,0,0],"id":76,"left_children":[1,3,-1,5,7,-1,-1,-1,-1],"loss_changes":[9.8347634E-1,9.2841154E-1,0E0,2.317708E0,9.9554086E-1,0E0,0E0,0E0,0E0],"parents":[2147483647,0,0,1,1,3,3,4,4],"right_children":[2,4,-1,6,8,-1,-1,-1,-1],"split_conditions":[8.6607146E-1,5.0078905E-1,2.485558E-2,1.6423357E-1,5.3493285E-1,8.172478E-3,-1.6241983E-2,1.9955738E-2,6.5218424E-4],"split_indices":[2,4,0,1,4,0,0,0,0],"split_type":[0,0,0,0,0,0,0,0,0],"sum_hessian":[8.710112E1,8.418421E1,2.9169092E0,3.8480957E1,4.570326E1,1.55730095E1,2.2907946E1,7.0952644E0,3.8607994E1],"tree_param":{"num_deleted":"0","num_feature":"5","num_nodes":"9","size_leaf_vector":"0"}},{"base_weights":[7.301833E-3,-1.3289544E-2,5.362768E-1,7.834957E-3,-5.713901E-1,-2.268758E-2,7.991708E-1,-6.8272465E-1,-1.8602149E-1],"categories":[],"categories_nodes":[],"categories_segments":[],"categories_sizes":[],"default_left":[1,1,0,1,1,0,0,0,0],"id":77,"left_children":[1,3,-1,5,7,-1,-1,-1,-1],"loss_changes":[9.651415E-1,1.0140617E0,0E0,2.034881E0,7.5740814E-3,0E0,0E0,0E0,0E0],"parents":[2147483647,0,0,1,1,3,3,4,4],"right_children":[2,4,-1,6,8,-1,-1,-1,-1],"split_conditions":[7.66307E-1,7.4759996E-1,2.681384E-2,7.2079694E-1,7.561848E-1,-1.1343791E-3,3.995854E-2,-3.4136232E-2,-9.301075E-3],"split_indices":[4,4,0,4,4,0,0,0,0],"split_type":[0,0,0,0,0,0,0,0,0],"sum_hessian":[8.695319E1,8.4633545E1,2.319648E0,8.249694E1,2.136606E0,8.0368385E1,2.1285512E0,1.0590327E0,1.0775734E0],"tree_param":{"num_deleted":"0","num_feature":"5","num_nodes":"9","size_leaf_vector":"0"}},{"base_weights":[7.2188075E-3,-6.6691525E-2,1.5194589E-1,4.22796E-2,-7.89233E-1,-6.211694E-2,3.4465802E-1,7.3265827E-1,1.2487868E-2,-9.7800803E-1,2.1505783E-1,9.2107974E-2,-1.004763E0,6.7771655E-1,6.515564E-2],"categories":[],"categories_nodes":[],"categories_segments":[],"categories_sizes":[],"default_left":[1,1,1,1,1,1,1,0,0,0,0,0,0,0,0],"id":78,"left_children":[1,3,5,7,9,11,13,-1,-1,-1,-1,-1,-1,-1,-1],"loss_changes":[9.500216E-1,4.667616E0,1.25932E0,1.0622908E0,1.6823182E0,2.282519E0,1.4401087E0,0E0,0E0,0E0,0E0,0E0,0E0,0E0,0E0],"parents":[2147483647,0,0,1,1,2,2,3,3,4,4,5,5,6,6],"right_children":[2,4,6,8,10,12,14,-1,-1,-1,-1,-1,-1,-1,-1],"split_conditions":[2.8431374E-1,1.0294118E-1,5.0360334E-1,1.7673287E-1,7.06589E-1,4.8480827E-1,6.2539345E-1,3.6632914E-2,6.243934E-4,-4.8900403E-2,1.0752892E-2,4.605399E-3,-5.023815E-2,3.388583E-2,3.257782E-3],"split_indices":[2,0,4,4,4,4,4,0,0,0,0,0,0,0,0],"split_type":[0,0,0,0,0,0,0,0,0,0,0,0,0,0,0],"sum_hessian":[8.686607E1,5.7857933E1,2.9008139E1,5.1093655E1,6.7642775E0,1.4063833E1,1.4944305E1,1.1376503E0,4.9956005E1,5.7160172E0,1.0482603E0,1.2861818E1,1.2020149E0,6.1687818E0,8.775524E0],"tree_param":{"num_deleted":"0","num_feature":"5","num_nodes":"15","size_leaf_vector":"0"}},{"base_weights":[6.7533394E-3,-1.3134039E-2,5.23387E-1,7.572034E-3,-5.5621725E-1,6.253979E-1,1.7325285E-1,-2.1901041E-2,7.862157E-1,-6.6347015E-1,-1.8208066E-1],"categories":[],"categories_nodes":[],"categories_segments":[],"categories_sizes":[],"default_left":[1,1,1,1,1,0,0,0,0,0,0],"id":79,"left_children":[1,3,5,7,9,-1,-1,-1,-1,-1,-1],"loss_changes":[9.07838E-1,9.6470815E-1,8.618891E-3,1.9280488E0,5.612433E-3,0E0,0E0,0E0,0E0,0E0,0E0],"parents":[2147483647,0,0,1,1,2,2,3,3,4,4],"right_children":[2,4,6,8,10,-1,-1,-1,-1,-1,-1],"split_conditions":[7.66307E-1,7.4759996E-1,8.0096376E-1,7.2079694E-1,7.561848E-1,3.1269897E-2,8.662643E-3,-1.0950521E-3,3.9310787E-2,-3.317351E-2,-9.104033E-3],"split_indices":[4,4,4,4,4,0,0,0,0,0,0],"split_type":[0,0,0,0,0,0,0,0,0,0,0],"sum_hessian":[8.66894E1,8.441451E1,2.274888E0,8.226409E1,2.1504169E0,1.1528428E0,1.1220453E0,8.020024E1,2.0638516E0,1.0702686E0,1.0801481E0],"tree_param":{"num_deleted":"0","num_feature":"5","num_nodes":"11","size_leaf_vector":"0"}},{"base_weights":[6.850913E-3,-1.4711051E-2,4.7933346E-1,-3.097698E-1,2.0293634E-2,1.811549E-1,-5.345685E-1,8.2216436E-1,-2.8906856E-3],"categories":[],"categories_nodes":[],"categories_segments":[],"categories_sizes":[],"default_left":[1,1,0,1,1,0,0,0,0],"id":80,"left_children":[1,3,-1,5,7,-1,-1,-1,-1],"loss_changes":[8.996244E-1,8.817213E-1,0E0,1.0956593E0,1.4284612E0,0E0,0E0,0E0,0E0],"parents":[2147483647,0,0,1,1,3,3,4,4],"right_children":[2,4,-1,6,8,-1,-1,-1,-1],"split_conditions":[8.6607146E-1,3.2347423E-1,2.3966674E-2,1.0218978E-1,3.415429E-1,9.057745E-3,-2.6728425E-2,4.1108217E-2,-1.4453428E-4],"split_indices":[2,4,0,1,4,0,0,0,0],"split_type":[0,0,0,0,0,0,0,0,0],"sum_hessian":[8.661321E1,8.375967E1,2.8535476E0,8.050621E0,7.5709045E1,2.5895655E0,5.461055E0,1.1590531E0,7.454999E1],"tree_param":{"num_deleted":"0","num_feature":"5","num_nodes":"9","size_leaf_vector":"0"}},{"base_weights":[7.0445705E-3,-1.2304707E-2,5.13972E-1,7.912609E-3,-5.390834E-1,6.153811E-1,1.6925113E-1,-2.0596195E-2,7.745332E-1,-6.4252627E-1,-1.7698315E-1],"categories":[],"categories_nodes":[],"categories_segments":[],"categories_sizes":[],"default_left":[1,1,1,1,1,0,0,0,0,0,0],"id":81,"left_children":[1,3,5,7,9,-1,-1,-1,-1,-1,-1],"loss_changes":[8.645187E-1,9.1221637E-1,9.116292E-3,1.8318703E0,4.8519373E-3,0E0,0E0,0E0,0E0,0E0,0E0],"parents":[2147483647,0,0,1,1,2,2,3,3,4,4],"right_children":[2,4,6,8,10,-1,-1,-1,-1,-1,-1],"split_conditions":[7.66307E-1,7.4759996E-1,8.0096376E-1,7.2079694E-1,7.561848E-1,3.0769056E-2,8.462557E-3,-1.0298098E-3,3.872666E-2,-3.2126315E-2,-8.849158E-3],"split_indices":[4,4,4,4,4,0,0,0,0,0,0],"split_type":[0,0,0,0,0,0,0,0,0,0,0],"sum_hessian":[8.649337E1,8.425318E1,2.2401934E0,8.20877E1,2.1654763E0,1.1242937E0,1.1158997E0,8.008275E1,2.004954E0,1.0819485E0,1.0835279E0],"tree_param":{"num_deleted":"0","num_feature":"5","num_nodes":"11","size_leaf_vector":"0"}},{"base_weights":[7.1285577E-3,-6.312726E-2,1.452037E-1,4.132821E-2,-7.6644814E-1,-5.9283845E-2,3.3053657E-1,1.2296211E-2,7.418163E-1,-9.466688E-1,2.0222351E-1,9.1202326E-2,-9.797516E-1,6.5862525E-1,5.729429E-2],"categories":[],"categories_nodes":[],"categories_segments":[],"categories_sizes":[],"default_left":[1,1,1,1,1,1,1,0,0,0,0,0,0,0,0],"id":82,"left_children":[1,3,5,7,9,11,13,-1,-1,-1,-1,-1,-1,-1,-1],"loss_changes":[8.571831E-1,4.339385E0,1.14834E0,1.048424E0,1.5240502E0,2.168222E0,1.37651E0,0E0,0E0,0E0,0E0,0E0,0E0,0E0,0E0],"parents":[2147483647,0,0,1,1,2,2,3,3,4,4,5,5,6,6],"right_children":[2,4,6,8,10,12,14,-1,-1,-1,-1,-1,-1,-1,-1],"split_conditions":[2.8431374E-1,1.0294118E-1,5.0360334E-1,8.09492E-1,7.06589E-1,4.8480827E-1,6.2539345E-1,6.1481056E-4,3.7090816E-2,-4.733344E-2,1.01111755E-2,4.560116E-3,-4.898758E-2,3.2931264E-2,2.8647145E-3],"split_indices":[2,0,4,3,4,4,4,0,0,0,0,0,0,0,0],"split_type":[0,0,0,0,0,0,0,0,0,0,0,0,0,0,0],"sum_hessian":[8.641918E1,5.763564E1,2.8783539E1,5.1002163E1,6.6334763E0,1.4007951E1,1.4775588E1,4.994954E1,1.0526245E0,5.612069E0,1.0214069E0,1.2813933E1,1.1940172E0,6.073082E0,8.702505E0],"tree_param":{"num_deleted":"0","num_feature":"5","num_nodes":"15","size_leaf_vector":"0"}},{"base_weights":[6.6918177E-3,-1.3903848E-2,4.6269238E-1,-3.4170657E-2,4.4533467E-1,1.9989817E-1,5.889992E-1,-5.3364255E-2,4.7683337E-1,7.283582E-1,5.251846E-2],"categories":[],"categories_nodes":[],"categories_segments":[],"categories_sizes":[],"default_left":[1,1,1,1,1,0,0,0,0,0,0],"id":83,"left_children":[1,3,5,7,9,-1,-1,-1,-1,-1,-1],"loss_changes":[8.2545406E-1,8.0084383E-1,8.318126E-3,8.274542E-1,3.6631024E-1,0E0,0E0,0E0,0E0,0E0,0E0],"parents":[2147483647,0,0,1,1,2,2,3,3,4,4],"right_children":[2,4,6,8,10,-1,-1,-1,-1,-1,-1],"split_conditions":[8.6607146E-1,8.09492E-1,6.4850754E-1,7.6692E-1,1.764706E-1,9.994908E-3,2.944996E-2,-2.6682129E-3,2.384167E-2,3.6417913E-2,2.6259231E-3],"split_indices":[2,3,4,4,0,0,0,0,0,0,0],"split_type":[0,0,0,0,0,0,0,0,0,0,